<?xml version="1.0"?>
<MethodSetup Method="DNN::DNN GPU">
  <GeneralInfo>
    <Info name="TMVA Release" value="4.2.1 [262657]"/>
    <Info name="ROOT Release" value="6.09/01 [395521]"/>
    <Info name="Creator" value="hajohajo"/>
    <Info name="Date" value="Thu Feb  2 13:11:18 2017"/>
    <Info name="Host" value="Linux dx6-flafo-02 4.4.0-59-generic #80-Ubuntu SMP Fri Jan 6 17:47:47 UTC 2017 x86_64 x86_64 x86_64 GNU/Linux"/>
    <Info name="Dir" value="/work/hajohajo"/>
    <Info name="Training events" value="11036566"/>
    <Info name="TrainingTime" value="2.18069531e+03"/>
    <Info name="AnalysisType" value="Classification"/>
  </GeneralInfo>
  <Options>
    <Option name="V" modified="Yes">True</Option>
    <Option name="VerbosityLevel" modified="No">Verbose</Option>
    <Option name="VarTransform" modified="Yes">I</Option>
    <Option name="H" modified="Yes">False</Option>
    <Option name="CreateMVAPdfs" modified="No">False</Option>
    <Option name="IgnoreNegWeightsInTraining" modified="No">False</Option>
    <Option name="Layout" modified="Yes">TANH|100,TANH|100,TANH|100,TANH|100,TANH|50,LINEAR</Option>
    <Option name="ErrorStrategy" modified="Yes">CROSSENTROPY</Option>
    <Option name="WeightInitialization" modified="Yes">XAVIERUNIFORM</Option>
    <Option name="Architecture" modified="Yes">GPU</Option>
    <Option name="TrainingStrategy" modified="Yes">LearningRate=1e-1,Momentum=0.0,Repetitions=1,ConvergenceSteps=20,BatchSize=5000,TestRepetitions=1,WeightDecay=0.001,Regularization=NONE,DropConfig=0.0+0.5+0.5+0.5+0.5+0.5+0.5,DropRepetitions=1,Multithreading=True|LearningRate=1e-2,Momentum=0.5,Repetitions=1,ConvergenceSteps=20,BatchSize=5000,TestRepetitions=1,WeightDecay=0.001,Regularization=L2,Multithreading=True,DropConfig=0.0+0.0+0.0+0.0+0.0+0.0,DropRepetitions=1|LearningRate=1e-3,Momentum=0.3,Repetitions=1,ConvergenceSteps=20,BatchSize=5000,TestRepetitions=1,WeightDecay=0.0001,Regularization=L2,Multithreading=True|LearningRate=1e-4,Momentum=0.1,Repetitions=1,ConvergenceSteps=20,BatchSize=5000,TestRepetitions=1,WeightDecay=0.0001,Regularization=NONE,Multithreading=True</Option>
  </Options>
  <Variables NVar="50">
    <Variable VarIndex="0" Expression="R_bb" Label="R_bb" Title="R_{bb}" Unit="F" Internal="R_bb" Type="F" Min="0.00000000e+00" Max="6.28312250e+05"/>
    <Variable VarIndex="1" Expression="MET" Label="MET" Title="MET" Unit="GeV" Internal="MET" Type="F" Min="0.00000000e+00" Max="2.02635278e+03"/>
    <Variable VarIndex="2" Expression="TransMass" Label="TransMass" Title="Transverse mass" Unit="GeV" Internal="TransMass" Type="F" Min="0.00000000e+00" Max="1.43114111e+03"/>
    <Variable VarIndex="3" Expression="TransMass_jj" Label="TransMass_jj" Title="Transverse mass jj" Unit="GeV" Internal="TransMass_jj" Type="F" Min="0.00000000e+00" Max="4.28836572e+03"/>
    <Variable VarIndex="4" Expression="TransMass_muEt" Label="TransMass_muEt" Title="Transverse mass muEt" Unit="GeV" Internal="TransMass_muEt" Type="F" Min="0.00000000e+00" Max="9.15483887e+03"/>
    <Variable VarIndex="5" Expression="tj1Dist" Label="tj1Dist" Title="Tau-jet1 distance" Unit="F" Internal="tj1Dist" Type="F" Min="0.00000000e+00" Max="9.34038544e+00"/>
    <Variable VarIndex="6" Expression="tj2Dist" Label="tj2Dist" Title="Tau-jet2 distance" Unit="F" Internal="tj2Dist" Type="F" Min="0.00000000e+00" Max="8.85262585e+00"/>
    <Variable VarIndex="7" Expression="tj3Dist" Label="tj3Dist" Title="Tau-jet3 distance" Unit="F" Internal="tj3Dist" Type="F" Min="0.00000000e+00" Max="9.12049198e+00"/>
    <Variable VarIndex="8" Expression="j1j2Dist" Label="j1j2Dist" Title="jet1-jet2 distance" Unit="F" Internal="j1j2Dist" Type="F" Min="0.00000000e+00" Max="9.76625443e+00"/>
    <Variable VarIndex="9" Expression="j1j3Dist" Label="j1j3Dist" Title="jet1-jet3 distance" Unit="F" Internal="j1j3Dist" Type="F" Min="0.00000000e+00" Max="1.00545969e+01"/>
    <Variable VarIndex="10" Expression="j2j3Dist" Label="j2j3Dist" Title="jet2-jet3 distance" Unit="F" Internal="j2j3Dist" Type="F" Min="0.00000000e+00" Max="1.16162357e+01"/>
    <Variable VarIndex="11" Expression="muj1Dist" Label="muj1Dist" Title="Muon-jet1 distance" Unit="F" Internal="muj1Dist" Type="F" Min="0.00000000e+00" Max="1.11962395e+01"/>
    <Variable VarIndex="12" Expression="muj2Dist" Label="muj2Dist" Title="Muon-jet2 distance" Unit="F" Internal="muj2Dist" Type="F" Min="0.00000000e+00" Max="1.14384584e+01"/>
    <Variable VarIndex="13" Expression="muj3Dist" Label="muj3Dist" Title="Muon-jet3 distance" Unit="F" Internal="muj3Dist" Type="F" Min="0.00000000e+00" Max="1.05083561e+01"/>
    <Variable VarIndex="14" Expression="ej1Dist" Label="ej1Dist" Title="Electron-jet1 distance" Unit="F" Internal="ej1Dist" Type="F" Min="0.00000000e+00" Max="8.22466660e+00"/>
    <Variable VarIndex="15" Expression="ej2Dist" Label="ej2Dist" Title="Electron-jet2 distance" Unit="F" Internal="ej2Dist" Type="F" Min="0.00000000e+00" Max="9.01707172e+00"/>
    <Variable VarIndex="16" Expression="ej3Dist" Label="ej3Dist" Title="Electron-jet3 distance" Unit="F" Internal="ej3Dist" Type="F" Min="0.00000000e+00" Max="9.12063026e+00"/>
    <Variable VarIndex="17" Expression="tetaj1eta" Label="tetaj1eta" Title="tau eta*jet1 eta" Unit="F" Internal="tetaj1eta" Type="F" Min="-1.04287853e+01" Max="1.04054422e+01"/>
    <Variable VarIndex="18" Expression="tetaj2eta" Label="tetaj2eta" Title="tau eta*jet2 eta" Unit="F" Internal="tetaj2eta" Type="F" Min="-1.18349342e+01" Max="1.11829023e+01"/>
    <Variable VarIndex="19" Expression="tetaj3eta" Label="tetaj3eta" Title="tau eta*jet3 eta" Unit="F" Internal="tetaj3eta" Type="F" Min="-1.19776688e+01" Max="1.22829227e+01"/>
    <Variable VarIndex="20" Expression="j1etaj2eta" Label="j1etaj2eta" Title="jet1 eta*jet2 eta" Unit="F" Internal="j1etaj2eta" Type="F" Min="-2.15279083e+01" Max="2.26753368e+01"/>
    <Variable VarIndex="21" Expression="j1etaj3eta" Label="j1etaj3eta" Title="jet1 eta*jet3 eta" Unit="F" Internal="j1etaj3eta" Type="F" Min="-2.14337006e+01" Max="2.38864002e+01"/>
    <Variable VarIndex="22" Expression="j2etaj3eta" Label="j2etaj3eta" Title="jet2 eta*jet3 eta" Unit="F" Internal="j2etaj3eta" Type="F" Min="-2.49319191e+01" Max="2.47790852e+01"/>
    <Variable VarIndex="23" Expression="SelectedTau_pt" Label="SelectedTau_pt" Title="Highest pT Tau" Unit="GeV" Internal="SelectedTau_pt" Type="F" Min="0.00000000e+00" Max="2.01271985e+03"/>
    <Variable VarIndex="24" Expression="SelectedTau_phi" Label="SelectedTau_phi" Title="Tau phi" Unit="F" Internal="SelectedTau_phi" Type="F" Min="-3.14158154e+00" Max="3.14159012e+00"/>
    <Variable VarIndex="25" Expression="SelectedTau_eta" Label="SelectedTau_eta" Title="Tau eta" Unit="F" Internal="SelectedTau_eta" Type="F" Min="-2.59499168e+00" Max="2.57635975e+00"/>
    <Variable VarIndex="26" Expression="nTaus" Label="nTaus" Title="number of taus" Unit="F" Internal="nTaus" Type="F" Min="0.00000000e+00" Max="1.40000000e+01"/>
    <Variable VarIndex="27" Expression="Jet1_pt" Label="Jet1_pt" Title="Jet1 pT" Unit="GeV" Internal="Jet1_pt" Type="F" Min="0.00000000e+00" Max="2.51035620e+03"/>
    <Variable VarIndex="28" Expression="Jet1_phi" Label="Jet1_phi" Title="Jet1 phi" Unit="F" Internal="Jet1_phi" Type="F" Min="-3.14159036e+00" Max="3.14158773e+00"/>
    <Variable VarIndex="29" Expression="Jet1_eta" Label="Jet1_eta" Title="Jet1 eta" Unit="F" Internal="Jet1_eta" Type="F" Min="-5.04246664e+00" Max="5.09048939e+00"/>
    <Variable VarIndex="30" Expression="Jet1_IncSecVer_Btag" Label="Jet1_IncSecVer_Btag" Title="Jet1_IncSecVer_Btag" Unit="" Internal="Jet1_IncSecVer_Btag" Type="F" Min="-1.00000000e+01" Max="1.00000000e+00"/>
    <Variable VarIndex="31" Expression="Jet1_MVA_Btag" Label="Jet1_MVA_Btag" Title="Jet1_MVA_Btag" Unit="" Internal="Jet1_MVA_Btag" Type="F" Min="-9.89914954e-01" Max="9.99980867e-01"/>
    <Variable VarIndex="32" Expression="Jet2_pt" Label="Jet2_pt" Title="Jet2 pT" Unit="GeV" Internal="Jet2_pt" Type="F" Min="0.00000000e+00" Max="2.50600171e+03"/>
    <Variable VarIndex="33" Expression="Jet2_phi" Label="Jet2_phi" Title="Jet2 phi" Unit="F" Internal="Jet2_phi" Type="F" Min="-3.14158154e+00" Max="3.14158940e+00"/>
    <Variable VarIndex="34" Expression="Jet2_eta" Label="Jet2_eta" Title="Jet2 eta" Unit="F" Internal="Jet2_eta" Type="F" Min="-5.08757925e+00" Max="5.09455395e+00"/>
    <Variable VarIndex="35" Expression="Jet2_IncSecVer_Btag" Label="Jet2_IncSecVer_Btag" Title="Jet2_IncSecVer_Btag" Unit="" Internal="Jet2_IncSecVer_Btag" Type="F" Min="-1.00000000e+01" Max="1.00000000e+00"/>
    <Variable VarIndex="36" Expression="Jet2_MVA_Btag" Label="Jet2_MVA_Btag" Title="Jet2_MVA_Btag" Unit="" Internal="Jet2_MVA_Btag" Type="F" Min="-9.89914954e-01" Max="9.99979675e-01"/>
    <Variable VarIndex="37" Expression="Jet3_pt" Label="Jet3_pt" Title="Jet3 pT" Unit="GeV" Internal="Jet3_pt" Type="F" Min="0.00000000e+00" Max="1.23828430e+03"/>
    <Variable VarIndex="38" Expression="Jet3_phi" Label="Jet3_phi" Title="Jet3 phi" Unit="F" Internal="Jet3_phi" Type="F" Min="-3.14158940e+00" Max="3.14158106e+00"/>
    <Variable VarIndex="39" Expression="Jet3_eta" Label="Jet3_eta" Title="Jet3 eta" Unit="F" Internal="Jet3_eta" Type="F" Min="-5.09678221e+00" Max="5.08951139e+00"/>
    <Variable VarIndex="40" Expression="Jet3_IncSecVer_Btag" Label="Jet3_IncSecVer_Btag" Title="Jet3_IncSecVer_Btag" Unit="" Internal="Jet3_IncSecVer_Btag" Type="F" Min="-1.00000000e+01" Max="1.00000000e+00"/>
    <Variable VarIndex="41" Expression="Jet3_MVA_Btag" Label="Jet3_MVA_Btag" Title="Jet3_MVA_Btag" Unit="" Internal="Jet3_MVA_Btag" Type="F" Min="-9.89914954e-01" Max="9.99980867e-01"/>
    <Variable VarIndex="42" Expression="Electron_pt" Label="Electron_pt" Title="Electron pT" Unit="GeV" Internal="Electron_pt" Type="F" Min="0.00000000e+00" Max="1.22368201e+03"/>
    <Variable VarIndex="43" Expression="Electron_phi" Label="Electron_phi" Title="Electron phi" Unit="F" Internal="Electron_phi" Type="F" Min="-3.14158583e+00" Max="3.14156532e+00"/>
    <Variable VarIndex="44" Expression="Electron_eta" Label="Electron_eta" Title="Electron eta" Unit="F" Internal="Electron_eta" Type="F" Min="-2.97404313e+00" Max="3.19794869e+00"/>
    <Variable VarIndex="45" Expression="nElectrons" Label="nElectrons" Title="number of electrons" Unit="F" Internal="nElectrons" Type="F" Min="0.00000000e+00" Max="1.20000000e+01"/>
    <Variable VarIndex="46" Expression="Muon_pt" Label="Muon_pt" Title="Muon pT" Unit="GeV" Internal="Muon_pt" Type="F" Min="0.00000000e+00" Max="5.05434312e+05"/>
    <Variable VarIndex="47" Expression="Muon_phi" Label="Muon_phi" Title="Muon phi" Unit="F" Internal="Muon_phi" Type="F" Min="-3.14158154e+00" Max="3.14159203e+00"/>
    <Variable VarIndex="48" Expression="Muon_eta" Label="Muon_eta" Title="Muon eta" Unit="F" Internal="Muon_eta" Type="F" Min="-1.02887402e+01" Max="9.50040340e+00"/>
    <Variable VarIndex="49" Expression="nMuons" Label="nMuons" Title="number of muons" Unit="F" Internal="nMuons" Type="F" Min="0.00000000e+00" Max="2.80000000e+01"/>
  </Variables>
  <Spectators NSpec="0"/>
  <Classes NClass="2">
    <Class Name="Signal" Index="0"/>
    <Class Name="Background" Index="1"/>
  </Classes>
  <Transformations NTransformations="1"/>
  <MVAPdfs/>
  <Weights InputWidth="50" Depth="6" LossFunction="C" OutputFunction="S">
    <Layer ActivationFunction="3">
      <Weights rows="100" cols="50">
        4.2552771046757698e-03 7.4159144423902035e-04 -2.8686207951977849e-04 1.5567638911306858e-03 1.4245250495150685e-03 -1.4391503296792507e-02 -9.8601067438721657e-03 -5.7987784966826439e-03 -2.6142955903196707e-05 -3.3656670711934566e-03 -5.2938819862902164e-03 -1.0566285811364651e-02 -1.1846949346363544e-02 -4.2161829769611359e-03 9.2591409338638186e-04 -3.2545712310820818e-03 -1.2463227612897754e-03 -1.2403742410242558e-02 -3.0826847068965435e-03 7.6591023243963718e-03 3.2068330328911543e-03 4.9511799588799477e-03 6.7397672683000565e-03 -7.9652102431282401e-04 -1.3452956918627024e-03 8.7836303282529116e-04 -6.7271650768816471e-03 -3.1371046788990498e-03 6.9987322203814983e-03 1.3620380777865648e-03 -6.2559829093515873e-03 2.0064271986484528e-02 -5.1040755352005363e-04 -1.3038652250543237e-03 2.6235503610223532e-03 1.7308382317423820e-02 2.7901548892259598e-02 3.7889920175075531e-02 -3.0566786881536245e-03 -2.2313434164971113e-03 2.4955734610557556e-02 1.5962524339556694e-02 6.0707922093570232e-03 -1.6251952620223165e-03 2.4083005264401436e-03 -3.9777965284883976e-03 1.8894319655373693e-03 -2.6851084548979998e-03 -1.9190110033378005e-03 -2.0244710613042116e-03 7.9858722165226936e-03 -5.0998977385461330e-03 -2.1818469394929707e-04 -5.4146623006090522e-04 9.2820398276671767e-04 6.2366765923798084e-03 5.5509367957711220e-03 -2.2361362352967262e-03 1.2885081814602017e-03 -4.5703365467488766e-03 -5.8582602068781853e-03 -5.1625324413180351e-03 -3.4704762510955334e-03 2.6518371887505054e-03 -5.2517708390951157e-03 -4.1752397082746029e-03 -4.5389356091618538e-03 -1.6633589984849095e-03 -3.8988820742815733e-03 2.1951911039650440e-03 1.4088881434872746e-03 1.0418915917398408e-04 3.2729310914874077e-03 -3.7224844563752413e-03 -4.1774339042603970e-03 -3.7655108608305454e-03 -2.6913508772850037e-03 -4.7280439175665379e-03 -8.6142116924747825e-04 3.3227251842617989e-03 1.2128922389820218e-03 -1.8399970140308142e-03 -4.8771668225526810e-03 -4.9276784993708134e-03 -1.4190941583365202e-03 4.0001282468438148e-03 -1.6847691731527448e-03 1.0031408630311489e-02 2.3041511885821819e-03 3.5671913065016270e-03 -6.8095256574451923e-04 1.1478846136014909e-04 -2.6490625459700823e-03 -3.2812035642564297e-03 -1.2140679173171520e-03 -3.1783818267285824e-03 -2.7558987494558096e-04 -3.9239055477082729e-03 -9.4654178246855736e-04 1.3145291013643146e-03 1.1833907046820968e-04 3.0214518774300814e-03 -2.3448548745363951e-03 -1.8973562691826373e-04 2.6299515739083290e-03 -1.2187134474515915e-02 -3.8140274118632078e-03 -9.0377853484824300e-04 -4.7666085883975029e-03 4.2019481770694256e-04 -4.6991435810923576e-03 -9.0061323717236519e-03 -6.1629437841475010e-03 -2.4138439912348986e-03 8.1963045522570610e-03 6.4070946536958218e-03 -3.6792308092117310e-03 -9.4273732975125313e-03 4.6231769956648350e-03 5.6231403723359108e-03 -4.2523263255134225e-04 6.4522246830165386e-03 3.5569977480918169e-03 -2.5868410011753440e-04 -8.7749434169381857e-04 -2.5114337913691998e-03 -5.1645319908857346e-03 -3.2543216366320848e-03 -2.3706527426838875e-03 -2.0093342754989862e-03 -9.3017555773258209e-03 9.8220854997634888e-03 2.4639565963298082e-03 5.7382724480703473e-04 -2.7989472728222609e-03 1.8761245533823967e-02 1.7168417572975159e-02 3.5202614963054657e-02 -4.1136653162539005e-03 -2.6804604567587376e-03 2.3230273276567459e-02 1.1805321089923382e-02 1.1005414649844170e-02 3.4972628782270476e-05 -3.3195754513144493e-03 -6.2739552231505513e-04 -8.7320418970193714e-05 1.7528583994135261e-03 -1.4555332018062472e-03 -3.3394491765648127e-03 -1.0781176388263702e-02 -5.0233751535415649e-03 -1.6934932500589639e-04 -1.0178235825151205e-03 1.2256661430001259e-03 2.1768203005194664e-03 6.3760639168322086e-03 4.2953281663358212e-03 -2.0733202109113336e-04 -2.3171694483608007e-03 -6.8695228546857834e-03 -8.7532802717760205e-04 -5.7672625407576561e-03 9.2729134485125542e-04 1.3869290705770254e-03 -9.7407872090116143e-04 2.3960024118423462e-03 6.6744945943355560e-03 5.0216517411172390e-03 2.1903733722865582e-03 3.7585976533591747e-03 2.7472230140119791e-03 1.2985334033146501e-03 -2.6663278695195913e-03 1.8612351268529892e-03 -1.8503629835322499e-03 1.7836610786616802e-03 -3.8676091935485601e-03 2.4157813750207424e-03 -1.6500897472724319e-03 9.0841756900772452e-04 -7.4362708255648613e-03 4.2410851456224918e-03 1.6781510203145444e-04 -2.1299077197909355e-03 2.0317870657891035e-03 -3.2299691811203957e-03 7.4866507202386856e-04 3.6137972492724657e-03 2.1934837568551302e-03 8.4491283632814884e-04 -6.2062377110123634e-03 1.8837131792679429e-03 -4.2357621714472771e-03 6.8246637238189578e-04 -7.2513398481532931e-04 -2.3234658874571323e-04 -2.1021896973252296e-03 3.8232596125453711e-03 -3.4969004336744547e-03 -1.2698475271463394e-02 4.4230931962374598e-05 1.0610958561301231e-03 -4.0076754521578550e-04 2.1911895601078868e-04 -3.2429178245365620e-03 -3.6930120550096035e-03 -4.9315526848658919e-04 8.6358683183789253e-03 1.6214070841670036e-02 6.5384567715227604e-03 3.9048520848155022e-03 4.2006401345133781e-03 7.3958365246653557e-03 8.8989647338166833e-04 5.3350212983787060e-03 -1.1154850944876671e-03 -9.5338849350810051e-03 -3.0219128821045160e-03 -2.9901729431003332e-03 -2.4173283018171787e-03 -6.5098498016595840e-03 -9.7272517159581184e-03 -5.3853029385209084e-03 -2.7374250348657370e-03 -3.6783074028789997e-03 4.4083103421144187e-04 1.5452669467777014e-03 -1.1778625193983316e-03 4.8048649914562702e-03 -9.8562194034457207e-03 1.0977447032928467e-02 1.4021419920027256e-03 2.8920369222760201e-03 4.3900222517549992e-03 -7.6773096807301044e-03 1.2591828592121601e-02 -2.8385920450091362e-04 -3.9232913404703140e-03 7.7938742469996214e-04 -9.8840370774269104e-03 1.5830460935831070e-02 3.6254706792533398e-03 6.1272847233340144e-04 3.7797377444803715e-03 -8.0426310887560248e-04 3.3030922058969736e-03 -7.7400873124133795e-05 1.9519942579790950e-03 2.3274915292859077e-03 1.2103718705475330e-02 2.4780761450529099e-03 8.7789056124165654e-05 1.5737263020128012e-03 -6.2859785975888371e-04 -5.4537085816264153e-03 -6.8369059590622783e-04 -9.6059823408722878e-03 4.3856767006218433e-03 3.7387488409876823e-03 1.3148330617696047e-03 4.3487621587701142e-04 -1.1938555398955941e-03 3.7583364173769951e-03 -3.7570225540548563e-03 -3.3483668230473995e-03 -2.1823942661285400e-03 -5.7197976857423782e-03 -7.6030478812754154e-03 -2.1658979821950197e-03 -5.8996244333684444e-03 2.6317185256630182e-03 5.2757817320525646e-03 -7.0611294358968735e-04 2.1308704745024443e-03 -1.9181004026904702e-03 -6.0365851968526840e-03 1.0398074518889189e-03 1.5662352961953729e-04 -9.2635833425447345e-04 -5.3908367408439517e-04 1.9450864056125283e-03 2.1017270162701607e-02 2.7113166288472712e-04 4.8643103800714016e-03 5.6460392661392689e-03 8.1530548632144928e-03 -1.9301002845168114e-02 -2.7178740128874779e-03 -2.2138180211186409e-03 1.1150271166115999e-03 6.4579145982861519e-03 -1.9552749581634998e-03 -5.4425252601504326e-03 -2.1821155678480864e-03 -7.1286107413470745e-03 1.9652559421956539e-04 -5.5142287164926529e-03 -4.1082887910306454e-03 -4.2472607456147671e-03 1.3133791275322437e-02 -2.3482102900743484e-02 -2.0518796518445015e-03 -3.4679315285757184e-04 6.3458345830440521e-03 5.2868654020130634e-03 1.1374190449714661e-02 5.5159847252070904e-03 -4.9201599322259426e-03 -2.8172419406473637e-03 1.1158849811181426e-03 1.5499126166105270e-03 -3.9712319266982377e-04 5.3234943188726902e-03 5.3863883949816227e-03 -2.7916182298213243e-03 1.7728862076182850e-05 9.4562359154224396e-03 6.3537093810737133e-03 2.8935903683304787e-03 2.7432437054812908e-03 1.7892661271616817e-03 6.1030527576804161e-03 -9.2716058716177940e-03 6.9019856164231896e-04 -4.7577968798577785e-03 9.2532066628336906e-03 -1.1345832608640194e-02 -3.8371300324797630e-03 -2.8070034459233284e-03 1.4027851633727551e-02 -9.7570260986685753e-03 1.1420752853155136e-02 -5.5787833407521248e-03 -5.1358463242650032e-03 7.1766562759876251e-03 -1.2706094421446323e-02 3.5735521465539932e-02 8.6517224553972483e-04 3.3160930033773184e-03 3.6849647294729948e-03 -9.0378150343894958e-03 1.9626667723059654e-02 1.7198418499901891e-03 2.0250515080988407e-04 3.8524891715496778e-03 1.1245092377066612e-02 -3.8270789664238691e-03 -1.0456107556819916e-03 8.5606034845113754e-03 9.7612962126731873e-03 4.9106087535619736e-03 -6.6947221057489514e-04 1.0113156167790294e-03 -1.7292697448283434e-03 -9.2008739011362195e-04 -3.3708475530147552e-03 -2.9849554412066936e-03 6.5371617674827576e-03 -2.2894453722983599e-03 4.1636661626398563e-03 -1.6945307143032551e-03 -3.7817345000803471e-03 -4.9869460053741932e-03 1.4758497709408402e-03 4.9485820345580578e-03 -9.6470699645578861e-04 -5.7728134561330080e-04 -2.2117358166724443e-03 2.9779379256069660e-03 -1.4892984181642532e-03 3.5572324413806200e-03 4.3765516020357609e-03 3.4222840331494808e-03 -3.9493110962212086e-03 -4.0463465265929699e-03 -2.9506308492273092e-03 5.3468486294150352e-03 2.8193797916173935e-03 5.6313991080969572e-04 3.4304248401895165e-04 5.9112715534865856e-03 1.2939700391143560e-03 -1.0457636089995503e-03 4.1022091172635555e-03 -7.8678264981135726e-04 -9.6519239014014602e-04 -4.6416781842708588e-03 1.6800477169454098e-03 1.2419372797012329e-03 -1.9094743765890598e-03 7.1212439797818661e-03 3.8351202965714037e-04 2.1905440371483564e-03 -3.3598868176341057e-03 -1.7135214875452220e-04 5.7780556380748749e-04 -1.9405565690249205e-03 1.1866698332596570e-04 -3.2536189537495375e-03 -1.0164384730160236e-03 -1.0890086181461811e-02 1.2869774946011603e-04 2.6320880351704545e-05 1.1133573949337006e-02 -8.5058920085430145e-03 -5.4400200024247169e-03 -7.4752245564013720e-04 8.7466440163552761e-05 4.3938197195529938e-03 -1.4058389933779836e-03 4.6772072091698647e-03 4.3170647695660591e-03 -3.6646306398324668e-04 -1.7633408308029175e-02 -6.4268070273101330e-03 -3.6209652898833156e-04 -6.7790355533361435e-03 -2.1177474409341812e-03 5.1399716176092625e-03 -5.0455178134143353e-03 -1.9993164460174739e-04 -3.8485506083816290e-03 -8.0166012048721313e-03 -4.4610607437789440e-03 -3.1647053547203541e-03 2.0830424036830664e-03 1.0487258434295654e-02 2.6465528644621372e-03 1.3232978526502848e-03 -1.5332234324887395e-03 7.6100993901491165e-03 1.8444096669554710e-02 2.1173222921788692e-03 -1.3674469664692879e-03 -1.2633700389415026e-03 4.2898543179035187e-03 1.1561155319213867e-02 2.2029979154467583e-03 -2.5115010794252157e-03 6.0563622973859310e-03 6.2262625433504581e-03 -1.2819856405258179e-02 -3.9654904976487160e-03 4.0824231691658497e-03 -1.0740737430751324e-02 3.0077982693910599e-02 -6.6248944494873285e-04 -1.9827091600745916e-03 -2.8463217895478010e-03 8.2435915246605873e-03 5.8457101695239544e-03 -5.6228990433737636e-04 3.7037051515653729e-04 -6.5725483000278473e-03 -1.2674896977841854e-02 -7.7258325181901455e-03 -7.3555489070713520e-03 1.4015287160873413e-03 -1.5808718744665384e-03 -1.0971726151183248e-03 4.5753634185530245e-04 -1.4979165280237794e-03 4.4230078347027302e-03 -1.5217236243188381e-02 -8.1214262172579765e-03 -5.3915828466415405e-03 -2.7465082239359617e-03 -2.6490667369216681e-03 -5.3551695309579372e-03 -3.4808393102139235e-03 -4.9254982732236385e-03 -3.7863203324377537e-03 3.0249215196818113e-03 1.5131559921428561e-03 -3.0861422419548035e-03 -9.8353642970323563e-03 1.7742304131388664e-02 -4.2577679269015789e-03 -4.8071015044115484e-04 8.9277131482958794e-03 7.8074908815324306e-03 -1.1227977462112904e-02 -1.3613615883514285e-03 -2.7570072561502457e-03 -6.7403535358607769e-03 6.8008075468242168e-03 -2.6753060519695282e-03 -2.2597364149987698e-03 -4.7701358562335372e-04 -8.8726188987493515e-03 1.3500870205461979e-02 -4.4421073980629444e-03 4.0623517706990242e-03 -2.3312943521887064e-03 -2.8560166247189045e-03 1.5351956710219383e-02 3.6892376374453306e-03 2.1230981219559908e-03 5.3523585665971041e-04 3.0462432187050581e-03 1.8275199458003044e-02 -3.3528698259033263e-04 -1.8368360179010779e-04 3.3296478795818985e-04 -8.4311543032526970e-03 -6.7528607323765755e-03 -3.5472700837999582e-03 -7.0200511254370213e-03 5.7631833478808403e-03 3.9059964474290609e-03 1.6294853412546217e-04 -1.9151131855323911e-03 4.4200019910931587e-03 3.4009048249572515e-03 7.9671461135149002e-03 5.8982190676033497e-03 -1.2128630653023720e-02 -6.1001996509730816e-03 -4.9519785679876804e-03 5.5023385211825371e-03 -7.0324344560503960e-03 -1.2551554478704929e-02 -1.3729874044656754e-03 -3.5041365772485733e-03 9.6957926871255040e-04 -7.9766241833567619e-03 -1.8199956975877285e-03 -2.5918919127434492e-03 -3.8536412175744772e-03 -1.9301151856780052e-02 6.1481487937271595e-03 -6.8310553615447134e-05 -3.5822167410515249e-04 -1.8017869442701340e-03 -2.7895893435925245e-03 2.2299455478787422e-02 -6.1581301270052791e-04 -1.9804625771939754e-03 5.6887301616370678e-03 -8.4182730643078685e-04 1.5855047851800919e-02 -3.9832033507991582e-05 -1.4160496648401022e-03 -1.1081105330958962e-03 2.6288416702300310e-03 -2.5470685795880854e-04 -3.6323643289506435e-03 2.2722892463207245e-03 4.9245236441493034e-03 9.4715133309364319e-03 1.4557992108166218e-03 8.0735818482935429e-04 4.3118186295032501e-04 -2.4795071221888065e-03 -8.2293460145592690e-03 -1.7442118376493454e-02 -1.0286953765898943e-03 1.1001313105225563e-02 1.6167340800166130e-02 3.9994246326386929e-03 1.6235803486779332e-03 8.2820921670645475e-04 5.3620170801877975e-03 1.6561119118705392e-03 8.0322567373514175e-03 9.5161609351634979e-03 -3.2802629284560680e-03 6.8835320416837931e-04 2.6888218708336353e-03 -6.1733382754027843e-03 3.0275543686002493e-03 -4.1056643240153790e-03 8.2473613321781158e-02 4.7107541467994452e-04 -1.2412192299962044e-03 -3.1599483918398619e-03 -7.6977238059043884e-02 1.4909355377312750e-04 4.8999889986589551e-04 -3.3049508929252625e-02 1.4042938128113747e-02 3.1211136374622583e-03 -2.3793233558535576e-03 -2.8149648569524288e-03 -9.5223104581236839e-03 1.3114320114254951e-02 7.4829283403232694e-04 -9.9722936283797026e-04 2.7590885292738676e-03 -3.7660899106413126e-03 1.0362505912780762e-02 1.5022808685898781e-02 4.9026361666619778e-03 -2.5943315122276545e-03 -2.1825432777404785e-03 1.7447805032134056e-02 -9.3134847702458501e-04 6.2636127695441246e-03 7.6569081284105778e-03 -1.4276304282248020e-02 -3.3260013442486525e-03 -3.7871004315093160e-04 -4.7072081360965967e-04 1.7885223496705294e-03 -1.1881260201334953e-02 2.8528755065053701e-03 -4.0498711168766022e-03 -5.8395224623382092e-03 -7.3089534416794777e-03 -1.1758608743548393e-02 2.7477073017507792e-03 -1.6459595644846559e-03 -1.2177474563941360e-03 -1.0380008257925510e-02 -7.4529522098600864e-03 -1.0466178879141808e-02 9.9810948595404625e-03 1.3640617544297129e-04 1.4296335866674781e-03 -1.1331591667840257e-04 5.0140228122472763e-03 9.0179443359375000e-03 -2.2848076187074184e-03 3.9562303572893143e-03 -9.5682777464389801e-04 3.7198509089648724e-03 8.7673176312819123e-04 3.8052322342991829e-03 -5.4737403988838196e-03 1.9519152119755745e-02 2.3398043122142553e-03 -1.6882132040336728e-03 5.0979498773813248e-03 4.2458442039787769e-03 1.0102964006364346e-02 -3.4427479840815067e-03 -1.2513939291238785e-03 1.3739080168306828e-03 5.0599141977727413e-03 8.4411995485424995e-03 -9.1300738858990371e-05 -3.7945367395877838e-02 -1.0607495205476880e-03 -3.8725160993635654e-03 -4.2609189404174685e-04 4.1436392813920975e-02 5.1505961455404758e-03 2.0121079869568348e-03 -1.0417086072266102e-02 -1.4158803038299084e-02 1.9291291013360023e-02 1.4773955335840583e-03 -6.9484685081988573e-04 4.8342584632337093e-03 1.0024826042354107e-03 -1.0894250124692917e-02 -4.5942710712552071e-03 2.7524945326149464e-03 8.6351595818996429e-03 6.1037042178213596e-03 6.1980211175978184e-03 4.5869252644479275e-03 8.3848403301090002e-04 -1.2311834143474698e-03 3.9918199181556702e-03 -1.5516199346166104e-04 -9.2515274882316589e-03 -5.8431155048310757e-03 2.7754218317568302e-03 -2.9146107845008373e-03 -3.5734666744247079e-04 -1.0788959451019764e-02 -1.2813373468816280e-03 3.0767002608627081e-03 -2.8522880747914314e-03 -9.2751290649175644e-03 -2.8305919840931892e-04 -1.4617888955399394e-03 -1.8400674453005195e-03 -8.6029833182692528e-03 2.3796041496098042e-03 1.3231358025223017e-04 -1.2318930821493268e-03 5.1115488167852163e-04 -1.6098823398351669e-03 1.6487196087837219e-02 -3.8335185963660479e-03 2.5951254065148532e-04 1.0842677438631654e-03 -5.7285567745566368e-03 1.5003670938313007e-02 -2.5247925077565014e-04 9.5408171182498336e-04 8.5566582856699824e-04 2.6583056896924973e-03 -2.4347500875592232e-03 4.9167759716510773e-03 4.5174700208008289e-03 2.2593298926949501e-03 1.8965313211083412e-04 1.6071752179414034e-03 -1.5249769203364849e-03 -2.1345609275158495e-04 1.9939071498811245e-03 -8.1379776820540428e-03 -7.7267014421522617e-03 -2.5542119983583689e-03 -3.1328916084021330e-03 1.5709493309259415e-03 -3.0607441440224648e-03 -2.5305887684226036e-03 -3.1546021346002817e-03 -8.9687993749976158e-03 6.7961001768708229e-03 1.1739701731130481e-03 4.6633989550173283e-03 -2.9525090940296650e-03 -4.2150323279201984e-03 1.0157624492421746e-03 4.6448130160570145e-03 2.6878211647272110e-03 9.5718614757061005e-03 1.0853565763682127e-03 -4.3769413605332375e-03 2.3828458506613970e-03 3.0236400198191404e-03 -2.7733931783586740e-03 2.0597523543983698e-03 -2.4564322666265070e-04 -3.8292459212243557e-03 9.7954310476779938e-03 1.3142733369022608e-03 -4.5619406737387180e-03 -1.1176171028637327e-05 1.2886467389762402e-02 1.8968148157000542e-02 3.1213939189910889e-02 -1.1541873682290316e-03 2.4798451922833920e-03 2.0994134247303009e-02 1.4053747989237309e-02 1.0473671369254589e-02 1.2210042914375663e-03 3.8925372064113617e-03 -4.0443884208798409e-03 -2.7837927336804569e-04 -2.5300944689661264e-03 -3.6615112912841141e-04 -5.2587473765015602e-03 7.4769817292690277e-03 -8.5433628410100937e-03 7.9087144695222378e-04 -1.1167834745720029e-03 -8.9427607599645853e-04 2.7225853875279427e-02 2.7386745437979698e-02 2.4607045575976372e-02 -3.5308909136801958e-03 -8.3066392689943314e-03 -5.0373361445963383e-03 1.7262829467654228e-02 4.8584784381091595e-03 1.9818625878542662e-03 1.5018733218312263e-02 2.8168985154479742e-03 -5.7121077552437782e-03 2.2703960537910461e-02 8.8751250877976418e-03 6.5963091328740120e-03 8.4856133908033371e-03 1.6546886414289474e-02 9.2542152851819992e-03 -3.0161665752530098e-02 1.7812453210353851e-02 1.6830706736072898e-03 2.5328159332275391e-02 -5.4174731485545635e-03 -3.5163693246431649e-04 -1.8567685037851334e-03 2.1211694926023483e-02 -1.7100863158702850e-02 5.6600822135806084e-03 -2.8402940370142460e-03 -6.3565419986844063e-03 2.5703512132167816e-02 -2.3729767650365829e-02 9.3352552503347397e-03 8.2262483192607760e-04 1.2401719868648797e-04 2.4826446548104286e-02 -2.5707909837365150e-02 2.9732929542660713e-02 4.5538186095654964e-03 -4.9377046525478363e-04 1.3031725771725178e-02 2.9491495341062546e-02 3.6394938360899687e-03 -4.8237247392535210e-03 6.5375883132219315e-03 -1.6255157068371773e-02 2.2277303505688906e-03 1.5348844463005662e-03 -2.3105654690880328e-04 4.7509194700978696e-04 3.3801088575273752e-03 -1.5267602168023586e-02 -1.1252108961343765e-02 3.9251102134585381e-03 1.5599945560097694e-02 8.0234874039888382e-03 -7.1860249154269695e-03 4.1752820834517479e-03 2.5101652136072516e-04 6.2610367313027382e-03 8.6060706526041031e-03 8.5125043988227844e-03 -1.6902387142181396e-02 -5.1730396226048470e-03 -6.7455568350851536e-03 -3.4697945229709148e-03 -9.5525961369276047e-03 -1.3082238845527172e-02 -4.3083229102194309e-03 -5.6012417189776897e-03 2.3639195133000612e-03 1.3554088945966214e-04 -1.4184436295181513e-03 -2.1353487391024828e-03 -2.5943345390260220e-03 -2.0239433273673058e-02 9.4280764460563660e-03 4.0364749729633331e-03 -6.9402804365381598e-04 -3.5453997552394867e-03 -1.2485709972679615e-02 2.2163415327668190e-02 2.8844310436397791e-03 3.5257101990282536e-03 3.8467370904982090e-03 -1.1739323846995831e-02 2.2956522181630135e-02 8.5068633779883385e-04 2.0494798664003611e-03 3.6506203468888998e-03 4.1398694738745689e-03 3.3970238291658461e-04 4.2040492407977581e-03 -3.9341025985777378e-03 4.6405899338424206e-03 -6.5259438997600228e-05 6.1456519179046154e-03 -1.4855302288196981e-04 6.2017404707148671e-04 -8.1537343794479966e-04 4.6880272566340864e-04 1.1541297426447272e-03 1.3663168065249920e-03 -5.1649855449795723e-03 -8.9495646534487605e-04 -8.9448381913825870e-04 -2.6143083814531565e-03 1.2623907532542944e-03 -1.1318882461637259e-03 -1.4595314860343933e-04 2.4862070567905903e-03 -3.1677198421675712e-05 -2.0472162577789277e-04 -4.6417210251092911e-03 -3.5116884391754866e-03 3.9214082062244415e-03 -6.0415854677557945e-03 1.5304182888939977e-03 3.3644784707576036e-03 3.3941054716706276e-03 3.9676693268120289e-03 -8.6979224579408765e-04 1.1098197661340237e-02 -3.8159515243023634e-03 3.2830853015184402e-03 -2.9463253667927347e-06 8.9877372374758124e-04 -1.2600759044289589e-02 4.7571612522006035e-03 -1.7085541039705276e-03 -8.6316931992769241e-03 6.2312339432537556e-03 1.0136507917195559e-03 9.9544215481728315e-04 1.7245864728465676e-03 -9.8833662923425436e-04 4.6596096944995224e-04 2.8877282602479681e-05 4.4768340885639191e-03 -1.3305729953572154e-03 -1.4938296517357230e-03 1.3981267693452537e-04 4.9280542880296707e-03 3.0692055588588119e-04 2.4211811833083630e-03 -9.9151702597737312e-03 1.6477133613079786e-03 -4.4335328857414424e-04 7.4206927092745900e-04 4.0786188037600368e-05 -1.9755611196160316e-02 -4.8033773899078369e-02 -3.2601017504930496e-02 1.7926685512065887e-02 3.1893767416477203e-02 9.8378378897905350e-03 -1.8013916909694672e-02 -1.9289387855678797e-03 -3.4452590625733137e-03 -9.8187774419784546e-03 1.0193687863647938e-02 1.1057436466217041e-02 -3.7967849522829056e-02 -2.0144635811448097e-02 -1.3702530413866043e-02 -1.6541298478841782e-02 -3.5658694803714752e-02 -3.5311374813318253e-02 -7.9682115465402603e-03 -1.8443172797560692e-02 3.0149114318192005e-03 -1.3766999356448650e-02 4.6961205080151558e-03 1.0269960388541222e-02 4.4704428873956203e-03 -8.2159958779811859e-02 2.6524195447564125e-02 -1.6036529559642076e-03 -1.5861040446907282e-03 2.7411677874624729e-03 -4.9811810255050659e-02 5.3465288132429123e-02 5.1243789494037628e-03 -1.3881028862670064e-03 -3.5415193997323513e-03 -3.5322625190019608e-02 5.1209595054388046e-02 3.3617604058235884e-03 -3.3328465651720762e-03 -5.2619719645008445e-04 -2.7668874245136976e-03 3.8762898184359074e-03 -6.7535517737269402e-03 -3.7923923227936029e-03 4.8340889625251293e-03 -2.1071929950267076e-03 -8.7045812979340553e-03 -1.2242184020578861e-03 -2.0386811811476946e-03 -5.6794739793986082e-04 -6.4610186964273453e-03 -6.4279721118509769e-03 -6.1366846784949303e-03 4.8556341789662838e-03 -1.1415504850447178e-03 -1.3734406093135476e-03 -3.0579571612179279e-03 -5.8852722868323326e-03 -6.5523101948201656e-03 -1.4826768077909946e-02 -5.1159304566681385e-03 -5.1987608894705772e-03 -5.1852357573807240e-03 -3.5329326055943966e-03 -3.4072159323841333e-03 -2.9046442359685898e-03 1.5751407481729984e-03 3.8272936362773180e-03 -3.1734022777527571e-03 -3.1150127761065960e-03 2.8243034612387419e-03 -5.6404010392725468e-03 2.1068316418677568e-03 1.8177801975980401e-03 3.4496446605771780e-03 -5.0552212633192539e-03 1.1467233300209045e-02 2.4523086845874786e-02 -3.8538444787263870e-03 3.4810125362128019e-03 4.8554730601608753e-03 1.0960851795971394e-02 1.7113914713263512e-02 3.1908527016639709e-03 -4.8281489871442318e-03 4.9069710075855255e-03 6.9814641028642654e-03 -1.5760125592350960e-02 -2.8400409501045942e-03 2.9640821740031242e-03 -2.2010393440723419e-03 2.5737019255757332e-02 2.1566259674727917e-03 1.0883063077926636e-03 -6.5599544905126095e-04 -1.7659813165664673e-02 1.7070914618670940e-03 1.7617529956623912e-03 -9.2080788454040885e-04 2.4246750399470329e-04 -2.8735126834362745e-03 -1.4612808823585510e-02 -5.1906630396842957e-03 5.7526086457073689e-03 8.4383031353354454e-03 7.5045442208647728e-03 9.5364922890439630e-04 6.7466315813362598e-03 3.4683337435126305e-03 2.8872550465166569e-03 2.5570304132997990e-03 6.5537276677787304e-03 -1.5926675871014595e-02 -3.1062921043485403e-03 -4.3692355975508690e-03 -1.1757768224924803e-03 -3.5904948599636555e-03 -1.3338617049157619e-02 -1.2955760583281517e-02 -2.6005967520177364e-03 -3.2911628950387239e-03 -1.4429376460611820e-03 2.5469854008406401e-03 8.4887113189324737e-04 5.7863667607307434e-03 -2.5555156171321869e-02 1.4503536745905876e-02 3.7984035443514585e-03 -7.7293632784858346e-04 2.8248172020539641e-04 -1.8219230696558952e-02 1.7790259793400764e-02 5.4074246436357498e-03 -2.1910304203629494e-03 -2.2138151689432561e-04 -1.3680393807590008e-02 1.7831692472100258e-02 2.1401359699666500e-03 -2.8970118146389723e-03 7.9287705011665821e-04 -4.3275975622236729e-03 4.2690471746027470e-03 -4.1674943640828133e-03 3.3284635719610378e-05 -5.9769436484202743e-04 4.0940591134130955e-03 -6.2771397642791271e-03 1.4027239521965384e-03 7.7527412213385105e-04 -3.8833208964206278e-04 1.2264838442206383e-02 7.4493768624961376e-03 4.0716785006225109e-03 2.2847712971270084e-03 -7.1455899160355330e-04 4.1403830982744694e-03 4.5995172695256770e-04 -1.4364343369379640e-03 -3.5263032186776400e-03 1.4554334804415703e-02 -8.1409211270511150e-04 3.4171552397310734e-03 -1.4051784528419375e-03 6.3523631542921066e-03 -3.6706621176563203e-04 5.8857947587966919e-03 7.3902012081816792e-04 2.8803299646824598e-03 6.4569455571472645e-03 5.8562005870044231e-03 1.8020849674940109e-03 8.3677554503083229e-03 -2.0438741892576218e-02 4.2800577357411385e-03 2.0483662374317646e-03 -7.4187954887747765e-03 -2.3599995765835047e-03 -3.9967428892850876e-03 6.1385834123939276e-04 1.9398529548197985e-03 -2.3724227212369442e-03 -4.0023406036198139e-03 1.5862904256209731e-03 3.9748530834913254e-03 -4.6416142140515149e-04 -7.5307302176952362e-03 -5.6639001704752445e-03 1.6635354608297348e-02 4.6860198490321636e-03 -2.8393729589879513e-03 1.2507716892287135e-03 -2.5562100112438202e-02 3.2748829107731581e-03 -4.0808902122080326e-03 -7.5286603532731533e-04 -2.9590935446321964e-03 2.5561384391039610e-03 -2.6311513502150774e-03 -1.1325929081067443e-03 1.4940748224034905e-03 -4.0634996257722378e-03 4.2342380038462579e-04 -4.7011747956275940e-03 1.8704318790696561e-04 -1.2885573087260127e-03 -1.9783291500061750e-03 -5.1903068087995052e-03 -7.6434309594333172e-03 -6.4577688463032246e-03 4.7858124598860741e-03 2.8294997755438089e-03 -1.9328943453729153e-03 -5.2860206924378872e-03 -1.4604439493268728e-03 2.5427932851016521e-03 3.0071861692704260e-04 3.2818242907524109e-03 2.5370431831106544e-04 -2.2471100965049118e-04 -3.0131426174193621e-03 -4.1050412692129612e-03 -2.6490578893572092e-03 -1.4027049764990807e-03 3.4255185164511204e-04 3.5830230917781591e-03 -6.5538398921489716e-03 4.0307026356458664e-03 2.1961672231554985e-02 -5.4376688785851002e-03 -4.5450422912836075e-03 8.3637190982699394e-03 2.8116637840867043e-03 9.5925657078623772e-03 4.8702755011618137e-03 3.6149173974990845e-03 9.6812229603528976e-03 2.7088876813650131e-03 7.2506372816860676e-03 -7.5527012813836336e-04 -6.5433727286290377e-05 4.9797976389527321e-03 -7.6734417234547436e-05 -3.5767941735684872e-03 -5.0847115926444530e-03 -4.2036767117679119e-03 2.5383222382515669e-03 4.0019410662353039e-03 9.9044786766171455e-03 -5.3457543253898621e-03 2.4407226592302322e-03 -2.5063476641662419e-04 -5.9763262979686260e-03 -1.2767998268827796e-03 1.9946818065363914e-04 8.4304688498377800e-03 -2.2959113121032715e-03 1.3517695479094982e-03 4.7240271233022213e-03 3.4136869944632053e-03 -2.7915581595152617e-03 1.0557082714512944e-03 1.5049030771479011e-03 -2.1339510567486286e-03 -1.2401917483657598e-03 4.6016495616640896e-05 -2.4998732260428369e-04 -4.2735077440738678e-03 -2.0175969693809748e-03 -1.3429169543087482e-02 -7.0491986116394401e-04 -2.8863640036433935e-03 -2.3676166310906410e-03 -1.0727079585194588e-02 -4.1897869668900967e-03 -1.0022624628618360e-03 -7.0238979533314705e-03 2.0532538183033466e-03 -5.1698936149477959e-03 4.1584130376577377e-03 -1.8408587202429771e-03 -1.3218121603131294e-03 2.2754552774131298e-03 3.1786009203642607e-03 1.5266224509105086e-03 -3.6409543827176094e-04 -2.6625432074069977e-03 8.4356069564819336e-03 6.1701373197138309e-03 1.2354996288195252e-03 -5.0397110171616077e-03 -3.2419930212199688e-03 9.4372680177912116e-04 4.7342930920422077e-03 -1.0678083635866642e-03 1.7404933460056782e-03 -6.9156219251453876e-03 -2.9644840396940708e-03 5.0306215416640043e-04 -5.4647872457280755e-04 7.4028642848134041e-04 2.1989736706018448e-02 1.4895166270434856e-02 1.5289286151528358e-02 -2.4185616057366133e-03 -3.1722828280180693e-03 -1.8386775627732277e-03 5.9115812182426453e-03 -6.8349245702847838e-04 3.9208284579217434e-03 8.0197933129966259e-04 5.4018240189179778e-04 -4.0379306301474571e-03 1.0667112655937672e-02 3.8497014902532101e-03 -2.9737916775047779e-03 9.7573436796665192e-03 -7.6236604945734143e-04 -5.9560928493738174e-03 1.1349519481882453e-03 8.6587201803922653e-03 -9.7623991314321756e-04 1.1033857241272926e-02 -1.4727548696100712e-03 -1.4574814122170210e-03 1.3932425063103437e-03 7.0780487731099129e-03 -1.3444743119180202e-02 -2.8009997680783272e-02 2.1306816488504410e-03 -5.5511919781565666e-03 -6.2713683582842350e-03 -1.6258860006928444e-02 1.5358002856373787e-02 -4.5973556116223335e-03 -2.5200231466442347e-03 -8.3491834811866283e-04 -1.6759453341364861e-02 6.4828316681087017e-04 2.6910577435046434e-04 -4.5205997303128242e-03 4.4179107062518597e-03 -1.3101141666993499e-04 2.7943404857069254e-03 -2.4189337273128331e-04 8.6591551080346107e-03 4.1890647262334824e-03 -1.2642440386116505e-02 1.2043571041431278e-04 -6.4415915403515100e-04 -2.6812464930117130e-03 1.8441962078213692e-02 2.3188633844256401e-02 1.6826285049319267e-02 4.8957103863358498e-03 -6.6725770011544228e-03 -5.6916843168437481e-03 -7.3979380540549755e-03 -4.4965413399040699e-03 -5.9373141266405582e-04 2.9667787253856659e-02 9.0180961415171623e-03 1.0466980747878551e-02 2.0764401182532310e-02 9.1099338605999947e-03 8.6726369336247444e-03 9.9795190617442131e-03 3.7005599588155746e-03 9.3995304778218269e-03 -6.3809938728809357e-03 6.7702839151024818e-03 -1.4552458887919784e-03 1.8155761063098907e-02 -2.0552417263388634e-03 -3.5436761099845171e-03 2.4374711792916059e-03 1.1588713095989078e-04 -1.4154369942843914e-02 4.7683697193861008e-03 -5.0183245912194252e-03 -8.4627937758341432e-04 7.3449336923658848e-03 -3.0767006799578667e-02 2.3178609553724527e-03 -1.2293388135731220e-03 9.4635848654434085e-05 8.9438334107398987e-03 -2.8098125010728836e-02 2.6210462674498558e-03 4.8704324290156364e-03 -2.4500079452991486e-03 1.3933300040662289e-02 -4.4347342103719711e-02 -4.2067472822964191e-03 -7.9979625297710299e-04 2.3374902084469795e-03 2.3200451396405697e-03 -7.7711949124932289e-03 2.1457957336679101e-04 -1.3422757619991899e-03 -3.3836469519883394e-03 -6.3882960239425302e-04 3.7426387425512075e-03 3.7950915284454823e-03 7.8224315075203776e-04 -3.6337659694254398e-03 1.9180959789082408e-03 -4.2313402518630028e-03 4.9488386139273643e-03 -5.6968635180965066e-04 7.1264244616031647e-03 2.2562893573194742e-03 -1.5090036322362721e-04 4.7773797996342182e-03 -2.4808575399219990e-03 3.1350883655250072e-03 4.5399768278002739e-03 -3.5346365621080622e-05 -1.5557410370092839e-04 -4.2191499960608780e-04 4.8910202458500862e-03 -2.8092216234654188e-03 2.4941749870777130e-03 -2.5868031661957502e-03 7.4726238381117582e-05 -4.7680358402431011e-03 -5.7326257228851318e-03 -1.3930418062955141e-03 -9.7743272781372070e-03 1.7369136912748218e-03 6.0782907530665398e-04 -4.4674244709312916e-03 -8.8583631440997124e-03 -7.2181469295173883e-04 -1.5095544513314962e-03 3.3509195782244205e-03 -5.1901726983487606e-03 -7.9682748764753342e-03 4.5457175001502037e-03 -3.8076275959610939e-03 -2.3400469217449427e-03 -7.2363682556897402e-04 -1.2503452599048615e-02 -2.2598304785788059e-03 -1.3807215727865696e-03 -3.3315133769065142e-03 -7.3716957122087479e-03 -8.5229770047590137e-04 -9.4136473489925265e-04 -2.2842865437269211e-03 1.9387721549719572e-03 -6.6872173920273781e-03 -5.1157670095562935e-03 3.4498116001486778e-03 3.9212186820805073e-03 3.6025773733854294e-03 5.3100436925888062e-03 -5.3921351209282875e-03 3.6593205295503139e-03 9.3814427964389324e-04 -1.5377964591607451e-03 8.3235222846269608e-03 5.6967921555042267e-03 -5.2653504535555840e-03 -9.2213827883824706e-04 2.6669802609831095e-03 5.3104544058442116e-03 1.5425155288539827e-04 5.3405021317303181e-03 3.6908481270074844e-03 -7.1421256288886070e-03 -3.1982224900275469e-03 -2.8253728523850441e-03 -1.5520648099482059e-02 -2.0189618226140738e-03 -5.6018098257482052e-04 -1.2329709716141224e-02 9.3132294714450836e-03 1.4748987741768360e-02 -4.1135377250611782e-03 5.3285039030015469e-03 4.5894547365605831e-03 1.1930327862501144e-02 3.0767941847443581e-02 -4.9903090111911297e-03 9.5392728690057993e-04 1.5070825815200806e-02 1.3207953423261642e-02 2.4112656246870756e-03 -3.5199122503399849e-03 -3.1949346885085106e-03 2.9924653936177492e-03 -1.9803413306362927e-04 -2.4320185184478760e-03 3.2008057460188866e-03 6.8835271522402763e-03 -4.4838036410510540e-03 1.1091527529060841e-02 -7.6971750240772963e-04 1.3773558021057397e-04 9.1022945707663894e-04 -8.0038346350193024e-03 -1.1349333450198174e-02 8.2813663175329566e-04 -1.7001478699967265e-03 -9.9126854911446571e-04 1.3476710300892591e-03 -1.4806439867243171e-03 -6.1375829391181469e-03 -9.7902549896389246e-04 -9.4434799393638968e-04 2.8468687087297440e-03 3.1879934249445796e-04 -2.6877224445343018e-03 -2.7123990003019571e-03 6.6802487708628178e-03 -2.0885744597762823e-03 3.7760204577352852e-05 2.2357148118317127e-03 2.1820403635501862e-03 -4.0691155008971691e-03 4.4214846566319466e-03 -5.1523535512387753e-03 -4.0431986562907696e-03 -2.0371512509882450e-03 -1.4187346678227186e-03 -4.0267286822199821e-03 1.9100029021501541e-02 2.9574774089269340e-04 4.4418557081371546e-04 3.9591370150446892e-03 1.2185476720333099e-02 2.0661659538745880e-02 3.4262001514434814e-02 -3.1979612540453672e-03 -2.0164379384368658e-03 2.0127927884459496e-02 1.4534631744027138e-02 -2.7227345854043961e-03 -1.9302618457004428e-03 -3.2637838739901781e-03 -3.1490814872086048e-03 -1.8339552916586399e-03 4.1128555312752724e-03 -3.3737542107701302e-03 9.8424602765589952e-04 1.3307251967489719e-02 -4.2493161745369434e-03 5.3759571164846420e-04 2.0476344507187605e-03 -1.1749964905902743e-03 1.2029151432216167e-02 -5.3158216178417206e-03 -1.0539939394220710e-03 1.8255589529871941e-03 6.7274020984768867e-03 5.4118344560265541e-03 4.3912167893722653e-04 6.6861473023891449e-03 7.5107817538082600e-03 9.7169019281864166e-03 2.0170449279248714e-03 5.8698970824480057e-03 -1.0009764693677425e-02 3.3316800836473703e-03 -5.3636566735804081e-03 -9.4382827228400856e-05 -3.4671996254473925e-03 -1.0954173281788826e-02 2.5556528940796852e-02 -3.5939984954893589e-03 2.4992385879158974e-03 -1.3381140306591988e-03 -3.0599910765886307e-02 2.1474752575159073e-03 7.9193408600986004e-04 -1.8998691812157631e-02 -1.4712960692122579e-03 1.3321745209395885e-02 -2.3688422515988350e-03 -3.5764665808528662e-03 -2.2517240140587091e-03 4.9750297330319881e-03 2.8991678729653358e-02 2.0423925016075373e-03 4.8517020331928506e-05 -7.2123333811759949e-03 9.2827863991260529e-03 -4.8513162881135941e-02 3.3308058045804501e-03 -4.2423526756465435e-03 1.4051130274310708e-03 -4.7598849982023239e-02 -4.8025436699390411e-03 -3.9240857586264610e-03 6.6304448992013931e-03 -2.3648438509553671e-03 -2.8865856584161520e-03 -1.7784110968932509e-04 3.2654570532031357e-05 1.9055747543461621e-04 -6.5857381559908390e-04 1.2089464580640197e-03 1.5130554675124586e-04 -1.9568377174437046e-03 -8.8781388476490974e-03 -5.7221702300012112e-03 2.5359168648719788e-03 1.2953637633472681e-03 2.7960217557847500e-03 -5.9050214476883411e-03 -3.5464073880575597e-04 -1.2101747561246157e-03 9.6021144418045878e-04 -2.8719955589622259e-03 4.5591290108859539e-03 6.4314331393688917e-04 -2.5055124424397945e-03 3.0657434836030006e-03 1.5497761778533459e-03 3.3234755974262953e-03 -7.8196957474574447e-04 3.7303939461708069e-03 2.2771481890231371e-03 -1.6099475324153900e-03 4.1369954124093056e-03 3.6101287696510553e-03 -5.2032219246029854e-03 -3.3828723244369030e-03 5.1571680232882500e-03 3.4704939462244511e-03 3.4569667186588049e-03 -1.0668932460248470e-02 2.6634058449417353e-03 -1.3479319168254733e-03 2.8281908016651869e-03 4.9827285110950470e-03 -8.9156012982130051e-03 -2.3907381109893322e-03 3.5833325237035751e-03 -3.4151538275182247e-03 -2.2771263029426336e-03 -9.0345123317092657e-04 -2.3198761045932770e-03 4.3459674343466759e-03 -1.6636581858620048e-04 8.5158981382846832e-03 4.6207741834223270e-03 9.9709694040939212e-05 8.7732449173927307e-05 -1.1190445366082713e-04 -1.9358515273779631e-03 -2.5531116407364607e-03 -6.2591275200247765e-03 2.9714389238506556e-03 2.2468029055744410e-03 7.3878210969269276e-05 -3.1596522312611341e-03 4.7036269679665565e-03 1.5974957495927811e-03 -2.3708944208920002e-03 5.7429834268987179e-03 3.1332364305853844e-03 -8.4137223893776536e-05 1.9427225925028324e-03 -1.3452952262014151e-03 3.4496879670768976e-03 -4.4127786532044411e-03 3.9376285858452320e-03 -6.6233670804649591e-04 -4.7150603495538235e-03 3.7171007134020329e-03 8.0904242349788547e-04 -3.0226660892367363e-03 7.2256271960213780e-04 -1.7966338782571256e-04 -4.3426919728517532e-03 8.4483996033668518e-03 2.0394609309732914e-03 -9.2706794384866953e-04 -2.8596632182598114e-03 2.1917251870036125e-03 8.5600987076759338e-03 1.7624789616093040e-03 -7.0299505023285747e-04 -7.1884453063830733e-04 -1.3755463296547532e-03 7.5428080745041370e-03 6.1018363339826465e-04 -3.8031947333365679e-03 -9.2581019271165133e-04 -4.6437364071607590e-03 2.9530419851653278e-04 -5.2478495053946972e-03 -1.6972608864307404e-03 1.2188319815322757e-03 5.0231432542204857e-03 -5.4427632130682468e-03 9.7819976508617401e-04 -6.2763172900304198e-04 2.6972586056217551e-04 -7.1398465661332011e-04 1.3732510851696134e-03 1.4580669812858105e-03 2.2673020139336586e-03 -1.9965837709605694e-03 4.4788182713091373e-03 2.7759396471083164e-03 3.8822581991553307e-03 1.7307023517787457e-03 -7.8684178879484534e-04 -2.3586268071085215e-03 2.5759364943951368e-03 -6.8109837593510747e-04 1.2498475844040513e-03 -3.8145743310451508e-03 3.8343148771673441e-03 -3.5585678415372968e-04 -2.9553908389061689e-03 -1.9544279202818871e-03 5.4620993323624134e-03 4.1330824606120586e-03 3.9026886224746704e-03 -1.4506104635074735e-03 3.8918738719075918e-03 1.8691699951887131e-03 1.5214405721053481e-04 -1.3995398767292500e-03 -9.8365433514118195e-03 -5.0686495378613472e-03 7.9482473665848374e-04 -2.1804021671414375e-03 -7.7968155965209007e-03 -3.5132444463670254e-03 3.9030257612466812e-03 1.9681875128298998e-03 -5.2871122024953365e-03 -4.9873455427587032e-03 -8.1762182526290417e-04 -3.5906098783016205e-03 -3.6439751274883747e-03 4.4398633763194084e-03 1.0161531390622258e-03 -4.3027033098042011e-03 1.1349987471476197e-03 5.1818531937897205e-03 1.0900526307523251e-02 -2.0584903657436371e-02 -1.6567731508985162e-03 -1.6668085008859634e-03 1.6472388524562120e-03 1.8852367997169495e-02 2.1741984412074089e-02 2.3576600477099419e-02 -3.8327821530401707e-03 -1.1032535694539547e-02 -1.1987219564616680e-02 8.3264260319992900e-04 -4.5768762938678265e-03 8.2421855768188834e-04 -1.5934095426928252e-04 -2.0063999108970165e-03 -5.0052055157721043e-03 1.9969046115875244e-02 1.2964364141225815e-02 9.6577228978276253e-03 5.2253771573305130e-03 1.2577886693179607e-02 1.4708261005580425e-02 -2.6122971903532743e-03 1.0084997862577438e-02 2.5689660105854273e-03 2.8238540515303612e-02 -3.9027384482324123e-03 3.2402477227151394e-03 -3.0536070698872209e-04 2.4710355326533318e-02 -8.3936154842376709e-03 7.3059611022472382e-03 -2.4683834053575993e-03 -8.0989289563149214e-04 2.8074517846107483e-02 -3.2997317612171173e-02 8.5275247693061829e-03 -3.0782318208366632e-03 3.5510042216628790e-03 2.2051054984331131e-02 -3.1309705227613449e-02 3.8100727833807468e-03 -7.6365726999938488e-04 -1.5753789339214563e-03 5.1819733344018459e-03 -3.1379796564579010e-04 3.8490537554025650e-03 2.1357514924602583e-05 -1.6307348851114511e-03 1.0513276793062687e-02 -2.0547918975353241e-03 -5.3802516049472615e-05 -3.8228246849030256e-03 -2.4257066252175719e-04 6.4738485962152481e-03 -6.7139789462089539e-04 -2.4031954817473888e-03 7.6201785122975707e-04 4.7461413778364658e-03 -2.9601207934319973e-03 1.8744830740615726e-03 3.6787334829568863e-03 -3.0897257383912802e-03 -1.6788896173238754e-03 1.3925770763307810e-03 3.4983323421329260e-03 2.1741930686403066e-04 -4.8630069941282272e-03 -5.7567033218219876e-04 4.1711218655109406e-03 -4.3955901637673378e-03 7.5639452552422881e-04 -2.4139166343957186e-03 2.3643758613616228e-03 1.4874194748699665e-03 8.2440266851335764e-05 -2.7137119323015213e-03 2.7669549454003572e-03 3.8954885676503181e-03 -1.2050559744238853e-03 -2.9282905161380768e-03 -1.1994294822216034e-02 9.4756128964945674e-04 1.5542674809694290e-03 -2.7514568064361811e-03 -5.9880153276026249e-04 3.0135130509734154e-04 -3.6840275861322880e-03 -3.6797404754906893e-03 -4.5098834671080112e-03 -6.1567993834614754e-03 -6.1691383598372340e-04 -5.8054656255990267e-04 -3.5713263787329197e-03 6.1290413141250610e-03 -5.4370346479117870e-03 -1.9920908380299807e-03 -1.3642034027725458e-03 -1.5936066629365087e-03 -1.5379802323877811e-02 2.2103214636445045e-02 6.2436255393549800e-04 -6.5577216446399689e-04 -4.4598666136153042e-04 -1.4779062941670418e-02 -1.4530131593346596e-02 -8.0762822180986404e-03 -5.4300267947837710e-05 2.8434074483811855e-03 3.1003959011286497e-03 -3.2772962003946304e-03 1.1034568306058645e-03 2.9520166572183371e-03 1.6286268364638090e-03 1.9391223322600126e-03 6.1728297732770443e-03 -1.1055689305067062e-02 6.1427352193277329e-05 3.3788438304327428e-04 -1.1513262288644910e-03 -1.4585766475647688e-03 -9.7793610766530037e-03 -1.9222125411033630e-03 -9.4432840123772621e-03 1.1769388038374018e-05 -7.6836994849145412e-03 9.9479453638195992e-04 -1.6202256083488464e-03 1.3916515745222569e-03 -1.9542690366506577e-02 9.1274296864867210e-03 -1.0009250836446881e-03 -8.1905728438869119e-04 -2.4494878016412258e-04 -1.2662214227020741e-02 1.8417874351143837e-02 -3.1819350551813841e-03 4.7338730655610561e-03 4.0938709862530231e-03 -8.8709965348243713e-03 2.3007987067103386e-02 -2.0274642156437039e-04 9.9741842132061720e-04 3.3826353028416634e-03 -8.0118831247091293e-03 9.6126750577241182e-05 -2.7574466075748205e-03 -4.5578824356198311e-03 -3.4201375674456358e-03 -1.8335048109292984e-02 -2.1086200140416622e-03 3.4813914680853486e-05 -1.0541423398535699e-04 -1.8031170475296676e-04 -1.3425095239654183e-03 7.0544709451496601e-03 5.0557767972350121e-03 -1.0344806360080838e-03 -9.5882667228579521e-03 -1.2287030927836895e-02 1.0937594925053418e-04 -8.2584470510482788e-04 -4.2386455461382866e-03 -7.1710296906530857e-03 -5.4143508896231651e-03 -2.9370705597102642e-03 3.9822715334594250e-03 1.7924394924193621e-03 7.7813485404476523e-04 -1.3086304534226656e-04 1.0794702684506774e-03 3.9685666561126709e-03 1.8069404177367687e-03 -1.4379859203472733e-03 3.3395625650882721e-03 -7.3280429933220148e-04 1.3248287141323090e-03 -3.0856002122163773e-03 -1.3323406456038356e-03 1.5793507918715477e-02 -5.8336462825536728e-03 -2.6344817597419024e-03 -1.9862647168338299e-03 -4.6951328404247761e-03 7.1888049133121967e-03 -1.1032516136765480e-02 4.0987539105117321e-03 -2.6990121696144342e-03 -4.3776477687060833e-03 9.7170285880565643e-03 -7.1216416545212269e-03 -3.3311855513602495e-03 -2.0470593590289354e-03 3.0316021293401718e-03 1.3194178463891149e-03 -1.3119806535542011e-03 -1.8310460727661848e-03 1.4194950927048922e-03 -8.0347843468189240e-03 -4.3664043769240379e-03 -4.5780902728438377e-03 -6.1299046501517296e-04 -3.1176023185253143e-04 -4.9225860275328159e-03 -9.2124380171298981e-03 3.1118269544094801e-03 -2.9133150819689035e-03 -6.0013532638549805e-03 -1.0378181003034115e-02 -9.8160728812217712e-03 -4.3097878806293011e-03 -8.2599548622965813e-03 -3.2359773758798838e-03 3.6398230586200953e-03 1.8899722490459681e-03 4.6325242146849632e-03 4.8962887376546860e-03 -1.7154979286715388e-03 -1.0657210368663073e-03 -1.7996940296143293e-03 6.0339896008372307e-03 4.3490852112881839e-04 -3.2936299685388803e-03 1.8028661143034697e-03 -3.5729936789721251e-03 3.3595860004425049e-03 4.8229465028271079e-04 -1.6396082937717438e-03 4.6337251551449299e-03 7.0511270314455032e-03 -6.2103937380015850e-03 -4.6689895680174232e-04 3.2017934136092663e-03 3.9196251891553402e-03 9.7556235268712044e-03 -5.4786000400781631e-03 -5.9626977890729904e-03 -4.8744861851446331e-04 -1.5177780296653509e-03 4.5778285712003708e-03 -5.5382577702403069e-03 5.6788440793752670e-02 2.1385319996625185e-03 3.4959386102855206e-03 -1.1757255997508764e-03 -3.7100847810506821e-02 -8.6648034630343318e-04 3.2998967799358070e-04 -3.9747492410242558e-03 1.4455142430961132e-02 6.6338772885501385e-03 -1.7775882733985782e-03 -3.9070183411240578e-03 -1.5858522383496165e-03 -6.3736876472830772e-03 -3.9725941605865955e-03 1.2349771568551660e-03 -9.0836855815723538e-04 2.6334859430789948e-03 1.5862251166254282e-04 3.0814737547188997e-03 -5.1673511043190956e-03 2.8577644843608141e-03 -6.2789195217192173e-03 -3.1876715365797281e-03 2.0274566486477852e-03 -3.0593895353376865e-03 2.9241023585200310e-03 2.9250746592879295e-03 -1.8992873374372721e-03 5.3287087939679623e-03 6.0813236050307751e-03 3.2115515205077827e-04 4.1274535469710827e-03 2.5621161330491304e-03 -1.3477711472660303e-03 2.7439473196864128e-03 4.1723139584064484e-03 5.3187962621450424e-03 4.0436689741909504e-03 5.3515392355620861e-03 6.3033821061253548e-03 1.5248930139932781e-04 -2.0900410600006580e-03 5.5644349195063114e-03 8.9455591514706612e-03 6.4747934229671955e-03 8.5057708201929927e-04 4.4201756827533245e-03 6.2487074173986912e-03 7.7893333509564400e-03 -4.7195898368954659e-03 -6.0610226355493069e-03 1.3901921920478344e-03 1.1295943986624479e-03 1.8160375475417823e-04 -3.8187273312360048e-03 -4.8798993229866028e-03 7.6001341221854091e-04 5.4389896104112267e-04 4.4593703933060169e-03 -9.8207674454897642e-04 1.3964527752250433e-03 -1.3156339991837740e-03 -9.0089673176407814e-04 -7.3564355261623859e-03 -6.6061150282621384e-03 3.2720698509365320e-03 2.4210901465266943e-03 1.2910176301375031e-03 -2.4454600643366575e-03 -1.8604557262733579e-03 3.7031413521617651e-03 -3.2037948258221149e-03 -2.9502210672944784e-03 4.1624521836638451e-03 -6.1123105697333813e-03 -5.1964269950985909e-03 -8.8337656052317470e-05 -1.2888350465800613e-04 -4.3517220183275640e-04 1.5611150301992893e-03 4.8397532664239407e-03 2.5133260060101748e-03 -5.0460235215723515e-03 -4.1860635392367840e-03 8.3130225539207458e-03 -1.3668911997228861e-03 1.4454841148108244e-03 1.6073790611699224e-03 5.6476569734513760e-03 6.0197114944458008e-03 2.2299622651189566e-03 3.6247593816369772e-03 -4.2799580842256546e-03 -4.8236100701615214e-04 -9.3856146559119225e-03 -3.5176610108464956e-03 3.1072255223989487e-03 2.4947861675173044e-03 1.7908707377500832e-04 1.1564702726900578e-03 2.2993697784841061e-03 -2.0346322562545538e-03 -6.7524123005568981e-04 2.9933396726846695e-03 2.1250110585242510e-03 1.6736934194341302e-03 -1.6407126095145941e-03 1.0924178641289473e-03 3.5909547004848719e-03 2.8721163980662823e-03 -6.5563205862417817e-04 3.3924940507858992e-03 1.1039794422686100e-02 -5.5713658221065998e-03 1.8985770293511450e-04 8.4311785176396370e-03 1.1508501134812832e-02 3.8735673297196627e-04 5.7021821849048138e-03 2.9857198242098093e-03 5.5838921107351780e-03 -1.8344328273087740e-03 4.6470359666272998e-04 1.2698585633188486e-03 -9.0600345283746719e-03 -1.4695834834128618e-03 -5.4147373884916306e-03 -2.5931538548320532e-03 -4.0126522071659565e-03 -7.0069343782961369e-03 3.8715895265340805e-02 -4.3848580680787563e-03 1.6922650393098593e-03 -4.2139790020883083e-03 -3.9836365729570389e-02 -1.4032439794391394e-03 5.3368252702057362e-03 -1.4034519903361797e-02 5.8398442342877388e-03 -2.0360189955681562e-03 9.1359681391622871e-05 8.2451908383518457e-04 -1.0595692321658134e-02 4.8511358909308910e-03 7.9063102602958679e-03 -7.5140141416341066e-04 8.1727775977924466e-06 -5.1598814316093922e-03 8.7777972221374512e-03 2.7440240606665611e-02 -5.1562888547778130e-03 -3.6121830344200134e-03 1.1529906187206507e-03 -3.2244026660919189e-02 9.9470047280192375e-04 2.3250039666891098e-03 -3.3060414716601372e-04 3.9679585024714470e-03 -5.6588309817016125e-03 1.7249032680410892e-04 -2.1881416614633054e-04 1.0534630855545402e-03 4.0816604159772396e-03 4.3931799009442329e-03 1.9571809098124504e-03 -3.2517407089471817e-03 -3.4925687941722572e-04 -6.4321709796786308e-03 -1.0621646651998162e-03 1.4141915016807616e-04 5.2720692474395037e-04 2.6260465383529663e-03 1.6707610338926315e-03 -2.4250173009932041e-03 1.5302462270483375e-03 4.1363844648003578e-03 2.2291450295597315e-03 -2.8322616126388311e-03 4.4251368381083012e-03 -4.8214471898972988e-03 -3.8353463169187307e-03 -6.2103912932798266e-04 -1.1356816394254565e-03 -2.4066446349024773e-03 -7.3260539211332798e-03 -2.4421044508926570e-04 -3.5287233185954392e-04 -2.7271546423435211e-03 -4.4825696386396885e-03 -3.0826593865640461e-04 -7.5110624311491847e-04 -1.9356989068910480e-03 2.5781888980418444e-03 -4.8627741634845734e-03 7.0191035047173500e-03 -3.9869709871709347e-03 4.2261052876710892e-03 -5.1653594709932804e-04 -6.1659673228859901e-03 -1.0172344045713544e-03 -4.6175071038305759e-03 3.3097984269261360e-03 -3.6353822797536850e-03 -2.6262318715453148e-04 3.5573216155171394e-03 3.4794423263520002e-03 -8.0254580825567245e-04 -1.0929575189948082e-02 -3.1709179747849703e-03 1.6301623545587063e-03 8.4672421216964722e-03 3.8616997189819813e-03 -2.9512451146729290e-04 -6.7011434584856033e-03 1.1971712810918689e-03 -4.0603699744679034e-05 -2.2328677587211132e-03 -2.7193070854991674e-03 -4.7569251619279385e-03 -7.0106885686982423e-05 2.9223968740552664e-03 -4.0177274495363235e-03 5.5439923889935017e-03 -3.0769489239901304e-03 -3.3701236825436354e-03 3.4277709200978279e-03 4.9806857714429498e-04 -4.1318400762975216e-03 2.7253678999841213e-03 5.1628593355417252e-03 -1.0164108825847507e-03 3.2593391370028257e-04 7.5330049730837345e-04 1.9911478739231825e-03 -3.0439519323408604e-03 6.1646872200071812e-04 -4.0199519135057926e-03 -5.5651990696787834e-03 1.0634007863700390e-02 1.0632882826030254e-02 9.8270492162555456e-04 -1.5057493001222610e-03 1.1216814629733562e-02 7.8769894316792488e-03 4.8188897781074047e-03 -4.6374890953302383e-03 -1.5966458013281226e-03 2.0504917483776808e-03 6.1326357536017895e-03 4.0393089875578880e-03 -7.1760918945074081e-04 -3.2606897875666618e-03 4.0572159923613071e-03 1.7493020277470350e-03 -3.7017170689068735e-04 3.6862250417470932e-03 -1.0317524429410696e-03 1.2634793529286981e-03 -3.1133031006902456e-03 -9.9757267162203789e-03 -1.3333898968994617e-03 1.5279419720172882e-02 6.3797216862440109e-03 -3.3620768226683140e-04 3.3550622174516320e-04 -7.5366683304309845e-03 -6.8678804673254490e-03 -2.4319398216903210e-03 1.3823999091982841e-02 9.5171906286850572e-04 -2.1106489002704620e-03 -1.3210076838731766e-02 -2.4830447509884834e-03 8.5966801270842552e-04 2.1090701920911670e-04 2.0567483734339476e-03 -1.3267586473375559e-03 3.2934122718870640e-03 1.4178419951349497e-03 5.4244995117187500e-03 -2.6014365255832672e-02 7.4352845549583435e-03 4.3403566814959049e-04 6.8831881508231163e-03 -2.4591481778770685e-03 -5.9750359505414963e-03 2.7514351531863213e-03 7.1229040622711182e-03 -5.9299110434949398e-03 1.2986312503926456e-04 4.2694582953117788e-04 1.0978493373841047e-03 5.5607981048524380e-03 -2.7966275811195374e-03 6.6511565819382668e-03 -4.8763346858322620e-03 2.7782779652625322e-03 4.0481048636138439e-03 -7.1793366223573685e-03 -2.9855418950319290e-02 1.8973725382238626e-03 -5.2751447074115276e-03 -4.5045316219329834e-03 2.9670774936676025e-02 7.3298419010825455e-05 -5.8396616950631142e-03 -3.7375297397375107e-03 2.1015403326600790e-03 -6.4149405807256699e-03 1.5489403449464589e-04 2.3446067643817514e-04 1.3229583855718374e-03 6.9005866535007954e-03 8.4726409986615181e-03 3.6997438292019069e-04 -8.4369629621505737e-04 -4.2329388088546693e-04 -7.0982431061565876e-03 -2.1765413112007082e-04 -3.4598538186401129e-03 4.0748557075858116e-03 5.4643186740577221e-03 -5.9272241778671741e-03 -5.5010644719004631e-03 6.1626397073268890e-03 -1.5481001464650035e-03 -4.4603222049772739e-03 4.6188440173864365e-03 2.1895298268646002e-03 -2.1408901084214449e-03 -3.1482365448027849e-03 5.3867376409471035e-03 -2.9270420782268047e-03 5.1446468569338322e-03 -8.0783413723111153e-03 4.0284236893057823e-03 1.5297906938940287e-03 -2.6157437823712826e-03 -1.7263098852708936e-03 5.9492974542081356e-03 -5.1045762374997139e-03 -1.1464408598840237e-03 6.5747080370783806e-03 -9.9997781217098236e-03 -7.1245949948206544e-04 3.9614522829651833e-03 2.0708641968667507e-03 -1.1152321239933372e-03 -2.4355575442314148e-03 7.6839450048282743e-04 -2.2922817151993513e-03 -1.2217314215376973e-03 3.0546638299711049e-04 -2.1227284742053598e-04 3.6673918366432190e-03 1.2428790796548128e-03 1.8415172817185521e-03 -2.9164375737309456e-03 2.0065374672412872e-02 -4.5013389899395406e-04 -3.0141675379127264e-03 4.3093641288578510e-03 7.7024390920996666e-03 8.7675778195261955e-03 -2.3361723870038986e-03 -7.7510671690106392e-03 -5.5296136997640133e-03 5.4493416100740433e-03 8.9943241328001022e-03 1.8088874639943242e-04 4.9944417551159859e-03 8.2910424098372459e-03 9.4901741249486804e-04 1.3687589671462774e-03 -2.2651355247944593e-03 3.8593728095293045e-03 2.1820866968482733e-03 7.9679451882839203e-03 5.9505836106836796e-03 -2.4491376243531704e-03 1.0138446465134621e-02 4.1028740815818310e-03 3.8057162892073393e-03 1.0921433568000793e-03 -1.7363032326102257e-02 -2.9444978572428226e-03 1.3067467371001840e-03 8.2908784970641136e-03 -4.0352935902774334e-03 -2.8127642348408699e-02 2.9482303652912378e-03 -2.3611255455762148e-03 3.1264787539839745e-03 -1.6253036446869373e-03 -7.1027898229658604e-03 4.6998695470392704e-03 -5.2656522020697594e-03 4.6557583846151829e-03 -8.4251845255494118e-03 2.6065405458211899e-02 3.2156973611563444e-03 1.1444085976108909e-03 3.8714467082172632e-03 1.8725134432315826e-02 -3.5749597009271383e-03 -1.8715237965807319e-03 3.4512637648731470e-03 -6.1798952519893646e-03 -4.4477386400103569e-03 -9.4039738178253174e-04 1.6600637463852763e-03 -3.1522198114544153e-03 -8.2697690231725574e-04 1.2902745511382818e-03 9.8229730501770973e-03 -3.1633297912776470e-03 -9.6601191908121109e-03 -8.0459559103474021e-04 1.1206888593733311e-02 -1.4846198027953506e-03 1.8782131373882294e-03 -1.1680560186505318e-02 -5.5474434047937393e-03 -4.4439891353249550e-03 1.0064629837870598e-02 -3.5113279591314495e-04 8.0930963158607483e-03 -4.0803244337439537e-03 8.5210921242833138e-03 5.3669405169785023e-03 -2.7693353593349457e-02 3.2045817933976650e-03 -1.7881826497614384e-03 -1.5761891845613718e-03 -1.0575921041890979e-03 -7.4829551158472896e-04 7.9610972898080945e-04 9.3401214107871056e-03 2.0825096871703863e-03 2.6883962564170361e-03 -1.7864201217889786e-03 3.9281616918742657e-03 8.1083737313747406e-03 -2.3738455493003130e-03 1.6417959704995155e-02 3.1010766979306936e-03 -4.8104445450007915e-03 1.6020163893699646e-02 -3.6488275509327650e-04 -7.4130627326667309e-03 2.9067567083984613e-03 -2.3253597319126129e-03 -5.6330105289816856e-03 3.3305097371339798e-02 -1.0134328622370958e-03 2.7954594697803259e-03 -5.2027351921424270e-04 -9.3956720083951950e-03 6.8638904485851526e-04 -7.6263200026005507e-04 -1.0004425421357155e-03 1.9454603316262364e-03 -9.4388211145997047e-03 -9.7754588350653648e-03 -4.0060025639832020e-03 -6.0282868798822165e-04 -2.2238078527152538e-03 -8.4755979478359222e-03 -3.6068791523575783e-03 -5.4181339219212532e-03 -8.2406532019376755e-03 4.0119010955095291e-03 -2.8124516829848289e-03 -1.1238808510825038e-03 -1.0682647116482258e-02 2.1862494759261608e-03 1.3274232624098659e-03 -5.0261584110558033e-03 2.5546217802911997e-03 1.0298000648617744e-02 -8.8839908130466938e-04 -2.6430236175656319e-03 -1.8785821739584208e-03 -3.9704795926809311e-03 -3.0653327703475952e-03 -2.1035361569374800e-03 -3.3833433408290148e-03 -2.3069242015480995e-03 1.8118139356374741e-02 2.3664657492190599e-03 4.5729866251349449e-03 -1.8021913710981607e-03 2.0612822845578194e-02 2.5070382282137871e-02 3.7951786071062088e-02 2.8211229946464300e-03 2.5411401875317097e-03 2.3429496213793755e-02 1.8368314951658249e-02 7.5529972091317177e-03 -4.9522798508405685e-03 -3.5015854518860579e-03 -1.1044376296922565e-03 5.7209576480090618e-03 -4.5960582792758942e-03 3.1988886184990406e-03 -2.8670059982687235e-03 2.8969866689294577e-03 5.3315013647079468e-03 -7.9168850788846612e-05 3.0904400628060102e-03 1.5472911763936281e-03 -6.6237305290997028e-03 1.9429140957072377e-03 9.8279560916125774e-04 -2.8095750603824854e-03 9.2846021289005876e-04 -3.8684923201799393e-03 2.4079701397567987e-03 -5.5961208418011665e-03 3.5976697690784931e-03 -4.0857498534023762e-03 -1.9926649983972311e-03 3.5503897815942764e-03 2.3393132723867893e-03 -3.1233911868184805e-03 1.6116737388074398e-03 3.7426310591399670e-03 -3.1638902146369219e-03 6.9075385108590126e-03 -2.6336690643802285e-04 -9.9863682407885790e-04 3.8477564230561256e-03 -1.3654823414981365e-03 -3.2251230441033840e-03 -1.6693160869181156e-03 4.2423806153237820e-03 -1.5556076541543007e-03 5.3588827140629292e-03 1.4275480993092060e-02 -2.1314991172403097e-03 2.6704953052103519e-03 8.0257263034582138e-03 6.0344901867210865e-03 4.0125944651663303e-03 -3.3263646764680743e-04 1.7123689176514745e-03 6.2107434496283531e-03 3.3444832079112530e-03 -1.6824014019221067e-03 2.9235391411930323e-03 -2.1814843639731407e-03 -1.8803211860358715e-03 -1.3755615800619125e-03 -3.3835063222795725e-03 -2.3562135174870491e-03 -1.3349577784538269e-03 -5.0282389856874943e-03 6.5818550065159798e-03 -1.4206666965037584e-03 -1.4147845795378089e-03 3.1382835004478693e-03 -1.1489868164062500e-02 -7.8077665530145168e-03 1.8849056214094162e-03 -5.8370199985802174e-03 -2.0690651144832373e-03 -1.1975364759564400e-03 -5.5073406547307968e-03 -4.7802293556742370e-04 -2.6777717284858227e-03 -7.5732339173555374e-03 -1.3357986463233829e-03 -2.1001130808144808e-03 2.4491604417562485e-03 -2.4563218466937542e-03 1.5815699007362127e-03 -7.2219793219119310e-04 4.5998296700417995e-03 4.5714559964835644e-03 -4.7321952879428864e-03 -3.6425418220460415e-03 -4.7819651663303375e-03 3.1269744504243135e-03 1.7601789906620979e-02 -3.8285343907773495e-03 -3.6053990479558706e-03 1.1993193067610264e-02 6.9531742483377457e-03 1.4636368723586202e-03 -1.7535305814817548e-03 -1.5545588685199618e-03 5.0991633906960487e-03 1.3756538974121213e-03 -2.1689187269657850e-03 -1.4661265304312110e-03 4.8129791393876076e-03 6.2808678485453129e-03 4.5197261497378349e-03 -1.0089559480547905e-02 -1.5066559426486492e-03 -3.3561498858034611e-03 -3.8893176242709160e-03 1.9318575039505959e-02 5.0884522497653961e-03 1.1626327177509665e-03 3.0765605624765158e-03 4.5860330574214458e-03 5.1711951382458210e-03 -4.9613305600360036e-04 -1.3597306096926332e-03 -7.6166598591953516e-04 -3.7049099337309599e-03 -1.4292999403551221e-03 7.4544070230331272e-05 5.5294106714427471e-03 4.1419514454901218e-03 3.9298874326050282e-03 -4.7309994697570801e-03 2.3207510821521282e-03 -1.9932426512241364e-03 3.9617028087377548e-03 5.0226310268044472e-03 2.5412021204829216e-03 -8.5500944405794144e-03 4.5791300944983959e-03 2.2825419437140226e-03 6.2787852948531508e-04 4.7441511414945126e-03 3.8253555539995432e-03 -5.9126387350261211e-04 4.5254644937813282e-03 -2.3342271742876619e-04 4.0211956948041916e-03 -6.2849507667124271e-03 1.4245938509702682e-03 -2.0835713949054480e-03 -3.1883702613413334e-03 3.9204326458275318e-03 9.1068949550390244e-03 2.0415259059518576e-03 3.1852351967245340e-03 5.8917677961289883e-03 9.4756102189421654e-03 3.6862089764326811e-03 -9.7687647212296724e-05 -9.4022718258202076e-04 1.7714948626235127e-03 6.2827151268720627e-03 2.2810851223766804e-03 5.3156929789111018e-04 -6.0105009470134974e-04 3.3384168054908514e-03 5.3910876158624887e-04 -2.3325399961322546e-03 -3.6542695015668869e-03 2.2873849957250059e-04 1.5197477769106627e-03 1.3098346535116434e-03 -2.0251725800335407e-03 -1.2051327939843759e-04 -7.7311397762969136e-04 8.1744762137532234e-03 1.1263206601142883e-02 5.4959454573690891e-03 -1.5363829210400581e-02 -1.8754875287413597e-02 -8.2275765016674995e-03 4.9987961538136005e-03 -1.0682657593861222e-03 -3.6775958724319935e-03 -2.0799187477678061e-03 -5.4849158041179180e-03 -4.4563687406480312e-03 1.6720665618777275e-02 5.2273236215114594e-03 7.5185820460319519e-03 1.9520074129104614e-03 8.9383678277954459e-04 7.9177049919962883e-03 1.4592766528949142e-03 -1.2508714571595192e-03 -4.6820933930575848e-03 3.8958694785833359e-03 3.2453618478029966e-03 -5.4614124819636345e-03 2.1757408976554871e-03 2.6818539947271347e-02 -1.0909900069236755e-02 2.6524560526013374e-03 3.1738926190882921e-04 8.1622456491459161e-05 1.1190383695065975e-02 -2.5353971868753433e-02 -7.4534453451633453e-03 4.8102480359375477e-03 -3.4539366606622934e-04 4.6754535287618637e-03 -2.3686295375227928e-02 -3.4580526407808065e-03 -1.5148676466196775e-03 -1.4421415107790381e-04 -4.0283603593707085e-03 -4.2380504310131073e-03 3.6700521595776081e-03 2.0851320587098598e-03 -8.8156908750534058e-03 -6.6505046561360359e-03 -2.6751037221401930e-03 -3.9433722849935293e-04 -1.4454140327870846e-03 6.9827883271500468e-04 3.4313433570787311e-04 4.0370086207985878e-03 2.1470484789460897e-03 -2.7266757097095251e-03 -4.0060710161924362e-03 -3.9594513364136219e-03 2.1594327408820391e-03 -1.3138396898284554e-03 2.9650365468114614e-03 2.2106964606791735e-03 -1.8628159305080771e-03 1.7281837062910199e-04 -1.7714704154059291e-03 -1.2271623127162457e-03 -2.6730247773230076e-03 -3.9051164640113711e-04 -1.5696753980591893e-03 4.4714990071952343e-03 -2.2474739234894514e-03 3.7337662070058286e-04 -1.9698387477546930e-03 -2.6472858153283596e-03 3.5597287933342159e-04 -3.0363549012690783e-03 2.9984691645950079e-03 4.5740907080471516e-04 5.9965933905914426e-04 2.5629047304391861e-03 -9.4475189689546824e-04 -2.2104359231889248e-03 -2.0286529324948788e-03 -3.4224861883558333e-04 -1.8899753922596574e-03 -6.3100981060415506e-04 -1.0365445632487535e-03 5.0937887281179428e-03 -7.5556114315986633e-03 1.7245635390281677e-03 9.3428511172533035e-04 2.8895451687276363e-03 1.1696137953549623e-03 -1.9751902436837554e-04 2.4644844233989716e-03 -4.2494433000683784e-03 3.6170147359371185e-04 1.9884260836988688e-03 5.7937954552471638e-03 -1.6187495784834027e-03 -1.9113714806735516e-03 2.3250903468579054e-03 -3.5145406145602465e-03 -3.3542099408805370e-03 -4.9031972885131836e-03 -1.8482478335499763e-03 -4.6896436251699924e-03 1.5397112292703241e-04 -2.8242336120456457e-03 -1.0110210860148072e-03 -3.8364261854439974e-03 -8.4364339709281921e-03 -4.0750070475041866e-03 -2.0494321361184120e-03 -6.8899719044566154e-03 -3.8213587831705809e-03 5.0817937590181828e-03 -7.3684833478182554e-04 -1.6885366057977080e-03 6.6164312884211540e-03 1.0531657608225942e-03 2.6889983564615250e-03 1.7145539168268442e-03 -3.2057683711173013e-05 1.4761974103748798e-02 -2.2847361396998167e-03 -3.1306242453865707e-04 1.1385704390704632e-02 2.4556962307542562e-03 2.9081350658088923e-03 2.4532377719879150e-03 -2.2324544843286276e-03 5.7329386472702026e-03 1.6432748816441745e-04 -4.6279104426503181e-03 -2.0121328998357058e-03 1.1928773019462824e-03 7.1035111322999001e-03 5.1916679367423058e-03 -3.9127171039581299e-03 -2.7177252341061831e-03 -1.7038045916706324e-03 1.5788440359756351e-03 1.6642399132251740e-02 4.6453767572529614e-04 2.6568355970084667e-03 -5.4184813052415848e-03 2.9291890095919371e-03 4.6774666407145560e-04 -3.0496180988848209e-03 2.7527259662747383e-03 -7.8272103564813733e-04 -2.2383432369679213e-03 1.1555894277989864e-02 2.8558017220348120e-03 -3.8016189355403185e-03 -1.5602371655404568e-02 -2.6142296846956015e-03 -2.6948030572384596e-03 1.9153409812133759e-04 -7.2806347161531448e-03 2.6640037540346384e-03 -3.6555316764861345e-03 -5.8734039776027203e-03 1.2608082033693790e-02 4.0777684189379215e-03 9.3272945377975702e-04 2.9001464135944843e-03 7.3741097003221512e-03 1.1066680774092674e-02 1.8443711102008820e-02 6.7131547257304192e-04 -1.2937515275552869e-03 5.5423886515200138e-03 -5.6013967841863632e-03 -1.5770528698340058e-03 -2.2546632681041956e-03 9.9748950451612473e-03 -1.0368034243583679e-02 -4.1118878871202469e-03 -2.0900089293718338e-03 -2.0519235476967879e-05 1.0754515416920185e-02 -7.9911472275853157e-03 -1.5440405113622546e-03 3.9551872760057449e-03 -3.2042381353676319e-03 1.3785229995846748e-02 -1.8025878816843033e-02 -2.7238756883889437e-03 2.2671746555715799e-03 9.3466544058173895e-04 -4.5470180921256542e-03 -5.0027975812554359e-03 4.9383565783500671e-03 2.4242664221674204e-03 -2.9868707060813904e-03 -2.8735382948070765e-03 1.2021290138363838e-02 3.0037106480449438e-03 -1.0037140600616112e-04 -1.1837657075375319e-03 3.8197361864149570e-03 -1.2540449388325214e-02 -1.0420036269351840e-03 5.7670720852911472e-03 6.0080466791987419e-03 3.2426549587398767e-03 2.7153270784765482e-03 8.7693026289343834e-03 -2.2407511714845896e-03 -3.6858497187495232e-03 7.7081000199541450e-04 3.4915730357170105e-03 -7.9570161178708076e-03 -7.4172322638332844e-03 -8.4315976127982140e-03 -6.0201496817171574e-03 -6.1500831507146358e-03 -3.2521677203476429e-03 2.9073759913444519e-02 -3.8873415905982256e-03 -4.8736575990915298e-03 -6.6818445920944214e-03 -7.0780534297227859e-03 -1.9448773236945271e-03 -8.5132388630881906e-04 -6.5788021311163902e-03 7.7180983498692513e-03 -2.5194251909852028e-02 -1.9798013381659985e-03 -2.3603034205734730e-03 -1.5848670154809952e-02 5.1199723966419697e-03 -7.6244068332016468e-03 3.3300798386335373e-03 2.7143880724906921e-03 -1.1751353740692139e-02 5.7975938543677330e-03 -2.4715019389986992e-02 -2.5625296402722597e-03 -7.5448554707691073e-04 -4.2825983837246895e-03 2.5183415040373802e-02 -1.7173590604215860e-03 4.4590593315660954e-03 -2.3661660961806774e-03 4.7087900340557098e-02 2.2462091874331236e-03 -5.0542461685836315e-03 -2.1244217350613326e-04 -6.6813908051699400e-04 -1.1189839802682400e-02 -1.9472455605864525e-02 -8.9718559756875038e-03 1.4839718351140618e-03 1.4475153759121895e-02 8.9375050738453865e-03 -2.0274437702028081e-05 3.3421902917325497e-03 4.1093821637332439e-03 8.2871094346046448e-03 5.2688410505652428e-03 1.0287432000041008e-02 -1.8289102241396904e-02 -9.3912584707140923e-03 -2.4075163528323174e-03 7.4907904490828514e-03 -1.0850442573428154e-02 -1.3913842849433422e-02 -1.9227204611524940e-03 -9.8071340471506119e-03 5.6749847717583179e-03 -1.4457470737397671e-02 -2.5164189282804728e-03 1.2563015334308147e-03 2.5735935196280479e-04 -3.1553227454423904e-02 1.3597713783383369e-02 7.1770261274650693e-04 3.8867272087372839e-04 -2.5381441810168326e-04 -1.7085431143641472e-02 3.2812353223562241e-02 3.6155318375676870e-03 4.4292807579040527e-03 -3.1696604564785957e-03 -1.0185572318732738e-02 2.7356944978237152e-02 4.1158716194331646e-03 -7.0832204073667526e-03 -2.6314305141568184e-03 1.7409449210390449e-03 5.4653431288897991e-03 -4.3870615772902966e-03 -1.0142589453607798e-03 7.9651586711406708e-03 -6.7789466120302677e-03 -8.3574950695037842e-03 3.8379221223294735e-04 1.6439211321994662e-03 1.4747062232345343e-03 8.1683378666639328e-03 5.2062110044062138e-03 7.4890330433845520e-03 -4.8927040770649910e-03 -7.6548717916011810e-03 -6.3317664898931980e-03 -6.6596320830285549e-03 -2.7725813561119139e-04 8.8590226368978620e-04 -3.6910916678607464e-03 -7.1889068931341171e-04 1.3400964671745896e-03 7.7416305430233479e-03 9.5195313915610313e-03 -1.0411801049485803e-03 -2.8334155213087797e-03 6.3620726577937603e-03 5.5315229110419750e-03 -2.5419627781957388e-03 -2.2594754118472338e-03 4.5131482183933258e-03 2.0312797278165817e-03 -1.2735633179545403e-02 -5.4440874373540282e-04 2.9288416262716055e-03 4.3470491655170918e-03 -4.3987743556499481e-03 1.5353824943304062e-02 -2.3003352907835506e-05 3.0257648322731256e-03 1.5703391283750534e-02 -1.5626842156052589e-02 -2.2555543109774590e-03 -2.8287939494475722e-04 -3.9810631424188614e-03 9.4692949205636978e-03 -6.3341883942484856e-03 3.9151334203779697e-03 -1.9266563467681408e-03 -1.4186699409037828e-03 2.8621996752917767e-03 -3.0568407964892685e-04 9.4161770539358258e-04 -1.5788744203746319e-03 -4.7656716778874397e-03 1.8736842321231961e-03 -1.2573474086821079e-02 1.5026552136987448e-03 2.4648399557918310e-03 -7.3302579112350941e-03 1.0731651447713375e-02 6.5491674467921257e-03 -7.0753922045696527e-05 1.6098449705168605e-03 1.2948721414431930e-03 -2.2183035034686327e-03 1.1121227871626616e-03 -2.3898738436400890e-03 4.9153394065797329e-03 1.4162247069180012e-02 6.4846239984035492e-03 5.8605684898793697e-03 -1.4896830543875694e-03 1.6674662474542856e-03 -2.7679090853780508e-03 1.5636950265616179e-03 1.4257935108616948e-03 -3.0760781373828650e-03 -1.3138077920302749e-03 3.1169489957392216e-03 4.1989749297499657e-04 4.4715669937431812e-03 -5.4103988222777843e-03 -1.5363867860287428e-03 2.0599844865500927e-03 -9.3625523149967194e-03 -2.9423136729747057e-03 -1.7398623749613762e-03 -1.6079348279163241e-04 3.8722311146557331e-03 -9.2887300997972488e-03 -8.0885495990514755e-03 -1.1598133482038975e-02 1.1767070973291993e-03 1.0628557065501809e-03 -7.7304849401116371e-03 -1.1504602618515491e-02 8.0677857622504234e-03 -4.5862160623073578e-03 3.2305610366165638e-03 4.9297595396637917e-03 -2.1337132900953293e-02 1.8887587357312441e-03 -4.8083477304317057e-04 6.8641512189060450e-04 1.3525662012398243e-02 1.7469978192821145e-03 8.7110308231785893e-04 1.4624769100919366e-03 -4.7320118173956871e-03 -4.2159487493336201e-03 -3.5658483393490314e-03 2.2805484477430582e-03 8.1842411309480667e-03 2.5618539657443762e-03 5.0859428010880947e-03 -2.0589781925082207e-03 -3.2254464458674192e-03 1.4214891707524657e-03 -4.5940880663692951e-03 4.7260019928216934e-03 6.9311336847022176e-04 1.1563396546989679e-03 5.3964444668963552e-04 -5.5830986239016056e-03 -3.5443252418190241e-03 -4.7845570370554924e-03 3.7853450048714876e-03 1.4269863022491336e-03 -1.4093321515247226e-03 4.4068967690691352e-04 -5.7207170175388455e-04 2.2304162848740816e-03 8.7187712779268622e-04 5.1693529821932316e-03 -4.4757034629583359e-03 5.9647457674145699e-03 -3.9338520728051662e-03 2.0688865333795547e-03 4.2622694745659828e-03 -4.0948903188109398e-03 4.1949292644858360e-03 4.1009718552231789e-03 5.2891625091433525e-03 -4.8416550271213055e-03 -3.6061799619346857e-03 2.6651993393898010e-03 -3.6447513848543167e-03 2.5484238285571337e-03 3.9906897582113743e-03 -5.6439163163304329e-03 4.2611272074282169e-03 -5.3982734680175781e-03 -3.9496230892837048e-03 8.6510597611777484e-05 -1.3888159766793251e-02 8.2770659355446696e-04 1.0665949666872621e-03 -3.1310119084082544e-04 -2.6176334358751774e-04 -6.7031322978436947e-03 -1.1256998404860497e-02 2.8061497141607106e-04 1.1843315325677395e-02 1.7338318750262260e-02 1.0649161413311958e-02 -6.2810810049995780e-04 2.5717881508171558e-03 5.3198807872831821e-03 5.5791260674595833e-03 9.7135948017239571e-03 3.0284007079899311e-03 -1.3626858592033386e-02 -3.9910068735480309e-03 -2.4224501103162766e-03 -1.5925433253869414e-03 -7.2289346717298031e-03 -3.9966488257050514e-03 -4.1474713943898678e-03 1.7709634266793728e-03 -2.6197913030046038e-05 1.9736017566174269e-03 3.0436404631473124e-04 4.6308021992444992e-03 -4.2800777009688318e-04 -1.5347540378570557e-02 1.0501028969883919e-02 1.5982475597411394e-03 -4.6258163638412952e-03 -3.9743958041071892e-03 -1.0089655406773090e-02 1.3830224052071571e-02 5.2647158736363053e-04 -3.7417453713715076e-03 -2.1444922313094139e-03 -7.5579625554382801e-03 1.7335737124085426e-02 2.7530696243047714e-03 2.6628815248841420e-05 1.9285229500383139e-03 -1.9787715282291174e-03 2.8790757060050964e-03 -1.1741763591999188e-04 -5.0715944962576032e-04 1.0651934891939163e-02 8.1425914540886879e-03 -4.9045090563595295e-03 8.1667402992025018e-04 -2.1496496628969908e-03 6.7459052661433816e-04 2.6389118283987045e-04 7.4182292446494102e-03 -5.2672217134386301e-04 2.9553165659308434e-03 1.1981590650975704e-03 -1.6022758791223168e-03 1.6551242442801595e-03 8.1065937411040068e-04 3.1630722805857658e-03 -5.6725461035966873e-04 -3.0898379627615213e-03 -1.7483645351603627e-03 6.6810636781156063e-03 -2.1587396040558815e-03 -2.8866576030850410e-03 2.0347777754068375e-03 -3.4126194659620523e-03 -2.6755707804113626e-03 -6.1887362971901894e-03 -2.6566982269287109e-03 1.9391770474612713e-03 6.6059117671102285e-05 -9.8581556230783463e-03 -3.7563175428658724e-03 4.1944957338273525e-03 -1.8141878535971045e-03 -9.2790916096419096e-04 1.3424807693809271e-03 2.5400905869901180e-03 3.8555075880140066e-03 4.6407342888414860e-03 -8.7213367223739624e-03 4.8137544654309750e-03 2.4620045442134142e-03 4.8765414394438267e-03 5.1488983444869518e-03 -2.9997038654983044e-03 -1.2161325430497527e-03 -6.9808535045012832e-04 -2.2011173423379660e-03 2.3194749373942614e-03 -5.0661875866353512e-03 -3.9581730961799622e-03 4.3445881456136703e-03 3.0485144816339016e-03 4.3180072680115700e-04 5.3162388503551483e-03 -6.4079178264364600e-04 7.0535962004214525e-04 -3.6636351142078638e-03 -8.4584699943661690e-03 -6.9008017890155315e-03 2.9263543547131121e-04 -2.5005228235386312e-04 -2.9694666154682636e-03 -1.6390460077673197e-03 3.7979229819029570e-03 2.6154837105423212e-03 2.5534173473715782e-03 -1.3962619705125690e-03 -2.3259036242961884e-04 -2.6390315033495426e-03 1.3314161333255470e-04 -5.3220880217850208e-03 4.9363463185727596e-03 -4.1795987635850906e-03 -1.1180732399225235e-03 3.5553041379898787e-03 3.9611940155737102e-04 3.7130704149603844e-03 3.3416203223168850e-03 1.1460006935521960e-03 4.5883520506322384e-03 4.7581596300005913e-03 1.8170990515500307e-03 7.7435970306396484e-03 -1.1968718608841300e-03 1.1608859524130821e-02 -2.3286330979317427e-03 4.1989269666373730e-03 8.7173162028193474e-03 2.6115975342690945e-03 -2.9118380043655634e-03 1.0980216320604086e-03 -7.9710013233125210e-04 6.5866699442267418e-03 1.1308656539767981e-03 -3.2108006998896599e-03 6.1157252639532089e-04 -1.0062784422188997e-03 -8.2539673894643784e-03 1.4027323573827744e-02 -3.7034491542726755e-03 -4.3443337199278176e-04 1.1583891464397311e-03 7.8777745366096497e-03 1.2735419906675816e-02 -1.2739127269014716e-03 6.5511756110936403e-04 2.1313816308975220e-02 -4.7898907214403152e-03 -5.5937152355909348e-03 -4.3757231906056404e-03 1.0641607223078609e-03 4.8454054631292820e-03 3.9396150968968868e-03 4.2254654690623283e-03 4.1911215521395206e-03 2.9317245353013277e-03 -4.3640783987939358e-03 -2.2506415843963623e-03 -2.0004855468869209e-03 -5.7221516035497189e-03 -3.3270765561610460e-03 -4.5836111530661583e-03 5.4876706562936306e-03 2.5055082514882088e-03 -5.9613105840981007e-03 2.9197002295404673e-03 -9.6798416052479297e-05 -2.0234913972672075e-04 -3.5946371499449015e-03 -4.9671744927763939e-03 3.5278673749417067e-03 -4.0145963430404663e-03 -7.0031872019171715e-03 4.7597501543350518e-04 -6.9336459273472428e-04 1.8455508325132541e-05 4.0019890293478966e-03 -3.1801355071365833e-03 6.9946348667144775e-03 9.4270872068591416e-06 6.1901001026853919e-04 6.1318627558648586e-04 3.3861820120364428e-03 1.4697677455842495e-02 6.9756439188495278e-04 -2.4056995753198862e-03 4.9088872037827969e-03 1.3496169121935964e-03 3.1479422003030777e-02 2.4458451662212610e-04 7.4362463783472776e-04 1.0354343801736832e-02 -2.7209618128836155e-03 -1.1051187291741371e-02 -3.2335596624761820e-03 1.0033494327217340e-03 1.1241654865443707e-03 3.6576357670128345e-03 -9.2898122966289520e-03 -5.3646205924451351e-03 4.8336158506572247e-03 3.5399282351136208e-03 7.9375918721780181e-04 -5.7885367423295975e-03 -1.7452308675274253e-03 1.3152055907994509e-03 -4.9460399895906448e-04 -3.5638092085719109e-03 4.2437384836375713e-03 -8.1817544996738434e-03 -1.4683172048535198e-04 -4.0688817389309406e-03 -1.7116216477006674e-03 -8.9134396985173225e-03 -1.6131761949509382e-03 1.7847843468189240e-02 1.1362292570993304e-03 -2.5833949912339449e-03 -1.3056983007118106e-03 -9.8417028784751892e-03 -1.4032919425517321e-03 5.2847503684461117e-03 -1.0168510489165783e-02 1.5507431235164404e-03 1.6713859513401985e-02 5.1262730266898870e-04 -4.5307939872145653e-03 -5.9737842530012131e-03 4.7560301609337330e-03 3.0800452455878258e-02 2.2137057967483997e-03 -1.9370703957974911e-03 -6.2212347984313965e-03 8.7300706654787064e-03 -4.4762451201677322e-02 -1.4756122836843133e-03 1.7109491454903036e-04 8.9171330910176039e-04 -3.3069539815187454e-02 -4.5305402018129826e-03 -4.1178264655172825e-03 -1.6809122171252966e-03 2.4694500025361776e-03 1.8186406232416630e-03 -1.0734895477071404e-03 -4.4707409688271582e-04 1.2362380512058735e-03 -1.2904724106192589e-02 -9.4160409644246101e-03 -6.8189119920134544e-03 -8.1350316759198904e-04 7.2214864194393158e-03 -6.6300188191235065e-03 -7.1568014100193977e-03 -3.9327219128608704e-03 -7.1364026516675949e-03 2.3050517484080046e-04 3.1324534211307764e-03 5.3295381367206573e-03 -9.3758339062333107e-03 -2.8989908751100302e-03 1.3019726611673832e-03 -2.9787076637148857e-03 7.6130526140332222e-03 7.5182532891631126e-03 -7.5024808757007122e-04 -4.0963604114949703e-03 -4.4167455052956939e-04 2.8818580321967602e-03 -3.8894810713827610e-03 -2.1361887920647860e-03 -3.9661247283220291e-03 -5.4736398160457611e-03 1.8205536529421806e-02 2.8013461269438267e-03 -3.6025037989020348e-03 -2.8889982495456934e-03 1.4117510057985783e-02 1.7559418454766273e-02 3.2197386026382446e-02 3.3291883300989866e-04 -4.9223620444536209e-03 2.2908614948391914e-02 9.2840008437633514e-03 4.6192877925932407e-03 -3.4404117614030838e-03 -1.9717798568308353e-03 2.7453538496047258e-03 2.6157579850405455e-03 -2.3488793522119522e-03 -5.5240868823602796e-04 -3.7823414895683527e-03 1.0922857560217381e-02 -2.1871631965041161e-02 1.4873138861730695e-03 5.1485066069290042e-04 3.2801035558804870e-04 3.5533874761313200e-03 1.7236566171050072e-02 4.5533622615039349e-03 -9.4683589413762093e-03 -8.5987634956836700e-03 -4.5487326569855213e-03 7.9448632895946503e-03 4.2603570036590099e-03 2.7287832926958799e-03 4.3826242908835411e-03 1.8771890318021178e-03 -2.0103268325328827e-03 5.8900481089949608e-03 6.7967921495437622e-03 -7.4212101753801107e-04 8.5819419473409653e-03 -2.3624699679203331e-04 2.8573579620569944e-03 -4.3583847582340240e-02 3.1379717402160168e-03 -2.6114913634955883e-03 2.7571297250688076e-03 2.4013245478272438e-02 2.3579786065965891e-03 -2.0675258710980415e-03 9.6917888149619102e-03 -9.8092760890722275e-03 1.5695616602897644e-02 -1.2120635947212577e-03 -4.1932538151741028e-03 9.9704768508672714e-03 -1.7014769837260246e-02 1.5893580392003059e-02 -3.6373098846524954e-03 2.3842433001846075e-03 5.8538625016808510e-03 -9.1131748631596565e-03 2.4393534287810326e-02 6.1599328182637691e-03 1.3978562783449888e-03 3.1613649334758520e-03 2.5948904454708099e-02 3.7269897293299437e-03 -3.9335167966783047e-03 1.3182165566831827e-03 2.5511397048830986e-02 -1.4818578958511353e-02 8.5558672435581684e-04 1.2582519557327032e-03 -2.2740792483091354e-03 8.0879339948296547e-03 1.0238775983452797e-02 1.1645140126347542e-02 -2.9237419366836548e-03 -3.2850117422640324e-03 -3.0260104686021805e-03 1.0987848974764347e-02 5.4514920338988304e-03 2.7251902502030134e-03 1.1096606613136828e-04 -2.9182806611061096e-03 -4.2246850207448006e-03 1.6442457213997841e-02 9.5983548089861870e-03 9.6186250448226929e-03 1.7657150747254491e-03 9.9580949172377586e-03 1.1848624795675278e-02 -8.0920457839965820e-03 7.3157832957804203e-03 -4.8929434269666672e-03 1.7250489443540573e-02 -1.3928710483014584e-02 7.1672070771455765e-04 -1.6066120006144047e-03 8.3889150992035866e-03 -8.9298393577337265e-03 1.1287239380180836e-02 -5.3932308219373226e-04 -3.0026303647900932e-05 1.9054284319281578e-02 -1.5075561590492725e-02 1.1286449618637562e-02 -1.5855777310207486e-03 1.8363515846431255e-03 1.5763593837618828e-02 -1.8711140379309654e-02 2.0108071621507406e-03 -3.9244610816240311e-03 8.1991631304845214e-04 1.6273563960567117e-03 1.2061716057360172e-02 -4.2127249762415886e-03 -4.7594038769602776e-03 4.4428398832678795e-03 5.7039000093936920e-03 1.3277903199195862e-02 -2.2397715598344803e-02 1.9313829019665718e-02 1.8672222504392266e-03 2.1293369354680181e-04 8.1295454874634743e-03 6.4192796126008034e-03 -3.3060288988053799e-03 2.2195293568074703e-03 -9.7760965581983328e-04 4.5911623165011406e-03 -2.4728344287723303e-03 -4.7590630128979683e-04 4.4643520377576351e-03 9.7089709015563130e-04 4.6191955916583538e-03 4.4245584867894650e-03 5.9457244351506233e-03 -3.8717004936188459e-03 5.9725190512835979e-03 -3.0950538348406553e-03 -4.8914173385128379e-04 6.0698832385241985e-03 -6.5585022093728185e-04 9.3438400654122233e-04 -1.0994352487614378e-04 -5.7635549455881119e-03 -2.9284595511853695e-03 -4.2579616419970989e-03 6.6922158002853394e-03 -7.5219604186713696e-03 -1.9250477198511362e-03 1.2535896385088563e-03 3.8670748472213745e-03 1.9216838991269469e-03 -3.4058582969009876e-03 -1.5034023817861453e-05 3.8624354638159275e-03 3.5691715311259031e-03 -1.0588399600237608e-03 3.0957948183640838e-04 5.0727627240121365e-03 1.7596997786313295e-03 -1.5417705290019512e-03 -2.1668353583663702e-03 -1.4363089576363564e-03 -1.7198990099132061e-03 -1.4355701860040426e-03 2.1990858949720860e-03 6.9210948422551155e-03 2.7354045305401087e-03 -8.5247736424207687e-03 -1.3536757789552212e-02 -2.4049072526395321e-03 4.7845942899584770e-03 -2.9283862095326185e-03 -1.1025869753211737e-03 2.5412391405552626e-03 -1.8561487086117268e-03 -5.3122369572520256e-03 -1.6897609457373619e-03 -4.2682220228016376e-03 -3.9689275436103344e-03 2.5107015389949083e-03 -5.0086749251931906e-04 -3.3830723259598017e-03 1.3226410374045372e-03 -2.4941252195276320e-04 -4.9971505068242550e-03 1.6403208719566464e-03 -1.2921080924570560e-03 -1.9279517000541091e-03 2.3370687849819660e-03 -3.3782206010073423e-03 4.4115260243415833e-03 -2.3400413338094950e-03 4.2153862887062132e-04 9.0753607219085097e-04 3.0034340452402830e-03 1.5569708775728941e-03 -7.3507158085703850e-03 1.5834079822525382e-03 -1.8129600211977959e-03 -1.0410280665382743e-03 2.4776495993137360e-03 -8.5671106353402138e-03 -4.1897981427609921e-03 2.9809549450874329e-03 -4.8412210308015347e-03 -3.1772139482200146e-03 8.3981215720996261e-04 2.8471741825342178e-03 -1.3950275024399161e-03 -2.9169325716793537e-03 5.6051001884043217e-03 8.4670609794557095e-04 3.2123462297022343e-03 1.2649091659113765e-03 -2.4178710300475359e-03 -4.8991404473781586e-03 -4.0684021078050137e-03 4.7552844625897706e-04 -1.8108279909938574e-03 2.3681574384681880e-04 1.7060574609786272e-03 3.9021358825266361e-03 4.2480970732867718e-03 7.8249460784718394e-05 4.5279022306203842e-03 -2.7698688791133463e-04 4.4367532245814800e-03 -1.9543142989277840e-03 3.8911222945898771e-03 1.9891534466296434e-03 1.1946434096898884e-04 -1.0043262736871839e-03 4.6835178509354591e-03 4.0416549891233444e-03 -5.1201288588345051e-03 -1.4445247361436486e-03 4.0615065954625607e-03 1.7795296153053641e-03 -4.2199669405817986e-03 2.8589603025466204e-03 -3.5115508362650871e-03 -1.4052748447284102e-03 -3.3337455242872238e-03 2.6648328639566898e-03 1.4072010526433587e-03 -2.1076428238302469e-03 -4.2876629158854485e-03 -6.0790586285293102e-03 4.8742224462330341e-03 -1.0826126672327518e-03 -2.7613769634626806e-04 1.3387418584898114e-03 4.7836443409323692e-03 2.7167857624590397e-03 -1.7429940635338426e-03 -1.4528366737067699e-03 2.6726918295025826e-03 -5.1844603149220347e-04 -3.4884861670434475e-03 3.1643121037632227e-03 4.1166050359606743e-03 -5.5769145546946675e-05 -2.5660160463303328e-04 -1.8603351199999452e-03 -2.5188056752085686e-03 -5.3788633085787296e-03 5.2771018818020821e-03 -6.3259410671889782e-04 2.3735498543828726e-03 -2.1494575776159763e-03 1.3122421223670244e-03 -3.6782012321054935e-03 -4.8005226999521255e-03 6.7364582791924477e-03 -1.4133600052446127e-04 9.6339103765785694e-04 1.9981067162007093e-03 -2.3031900636851788e-03 -2.5758140254765749e-03 -2.7147412765771151e-03 -3.2694120891392231e-03 5.1082130521535873e-03 -8.1499805673956871e-03 -1.8981636967509985e-03 -6.6669139778241515e-04 -7.4471305124461651e-03 -1.4886423014104366e-03 -3.1977007165551186e-03 6.9317170418798923e-03 -4.1932403109967709e-03 -2.2365804761648178e-03 -2.8834052500315011e-04 1.2568331323564053e-02 -4.5684054493904114e-03 3.3677979372441769e-03 -2.4569386150687933e-03 9.8206638358533382e-04 -2.3372918367385864e-03 -3.8195340894162655e-03 -3.4416115377098322e-03 -9.0869227424263954e-03 5.4835126502439380e-04 -1.1504642665386200e-02 -4.7730782534927130e-04 -5.0059976056218147e-03 -5.7461983524262905e-03 4.4290791265666485e-04 1.3657489325851202e-03 4.1488730348646641e-03 3.2590574119240046e-03 -2.2662674018647522e-04 4.6068644151091576e-03 9.7894377540796995e-04 2.6502010878175497e-03 -5.9913950972259045e-03 3.0962089076638222e-03 -1.7649551155045629e-03 1.4365326205734164e-04 -5.6509621208533645e-04 -1.1575628304854035e-03 2.2564193233847618e-02 2.0248571410775185e-02 5.9974850155413151e-03 1.0557305067777634e-03 -7.1619758382439613e-03 1.1528056114912033e-02 1.0815008543431759e-02 1.2717894278466702e-02 1.2051150202751160e-02 -6.3476399518549442e-03 -1.8381696427240968e-03 -2.3057860380504280e-04 1.4918830245733261e-02 3.3208940294571221e-04 -1.4807813568040729e-03 -1.4035137428436428e-04 -9.1820722445845604e-03 -7.5135393999516964e-03 -1.5193253057077527e-04 5.1179761067032814e-03 -1.4978201361373067e-03 5.6214630603790283e-03 3.8098897784948349e-03 -6.6925245337188244e-03 -4.5361574739217758e-03 1.0428071022033691e-02 -3.4701898694038391e-02 2.8095270972698927e-03 4.3831433868035674e-04 2.1205446682870388e-03 -2.0868554711341858e-02 -3.2217103987932205e-02 -4.5552626252174377e-02 -1.3880892947781831e-04 2.9882574453949928e-03 -2.9034188017249107e-02 -2.3980719968676567e-02 -3.6130514927208424e-03 -1.2623018119484186e-03 -1.1641815071925521e-03 -1.8884442979469895e-03 -3.8177047390490770e-03 5.8566899970173836e-03 -3.7174711469560862e-03 2.1137166768312454e-03 -1.7959892749786377e-02 -4.7730356454849243e-03 -2.2695712686982006e-04 -1.1513344943523407e-03 9.0638478286564350e-04 1.6430491581559181e-02 5.0901118665933609e-03 4.3023587204515934e-03 -3.1945954542607069e-03 -8.1943650729954243e-04 3.3865922596305609e-03 8.9889913797378540e-03 7.0887879701331258e-04 3.7288141902536154e-03 3.8082471583038568e-03 -2.5005096103996038e-03 -3.2877656631171703e-03 6.3544502481818199e-03 8.4271663799881935e-03 -4.8650288954377174e-03 1.0133207542821765e-03 -5.1253783749416471e-04 -3.6360421217978001e-03 -3.0662328936159611e-03 -7.7533989679068327e-04 -5.1366779953241348e-03 6.6409925930202007e-03 4.5970440842211246e-03 -6.2748268246650696e-03 -5.3636492229998112e-03 5.8265998959541321e-03 -1.2205609120428562e-02 -1.5800620894879103e-03 1.4765529194846749e-03 -3.2137548550963402e-03 -8.4936255589127541e-03 -1.3593087904155254e-02 -1.6508987173438072e-02 -2.9101376421749592e-03 -4.2460351251065731e-03 -1.3800358399748802e-02 -9.6064303070306778e-03 2.4032865185290575e-03 3.5803860519081354e-03 -4.9216262996196747e-03 -1.0996193159371614e-03 -6.6418419010005891e-05 5.0146188586950302e-03 -3.0921227298676968e-03 -3.0018237885087729e-03 5.4081263951957226e-03 -2.0153913646936417e-03 4.9881520681083202e-03 -1.9584202673286200e-03 7.9141173046082258e-04 -7.3234979063272476e-03 -1.2455627322196960e-02 3.8540002424269915e-04 7.0149851962924004e-03 5.6933211162686348e-03 5.2710534073412418e-03 -9.6273397502955049e-05 -3.0022857245057821e-03 4.7957859933376312e-03 2.4922704324126244e-03 7.5053505133837461e-04 5.9043890796601772e-03 -9.2166755348443985e-03 -3.4686457365751266e-03 3.3396211802028120e-04 -8.9679881930351257e-03 5.2798404358327389e-03 -2.1737504284828901e-03 5.5572386831045151e-02 -5.5383625440299511e-03 1.2956645805388689e-03 -5.1746685057878494e-03 -4.6608086675405502e-02 -4.1562090627849102e-03 -5.7579821441322565e-04 -1.1716577224433422e-02 1.1896180920302868e-02 3.5260550212115049e-03 1.8761077080853283e-04 3.5286378115415573e-03 -1.3713351218029857e-03 9.1645037755370140e-03 -2.4195662699639797e-03 1.1185329640284181e-03 1.4068072196096182e-03 -2.2107316181063652e-03 4.2441561818122864e-03 -1.6780175268650055e-02 -6.2431918922811747e-04 2.3815545719116926e-03 -2.3643937893211842e-03 -2.8273500502109528e-02 4.0843789465725422e-03 -4.6059163287281990e-04 1.8311467720195651e-03 1.7246009781956673e-02 -5.0409417599439621e-03 -1.3174529885873199e-03 -7.8215188113972545e-04 -1.9974291717517190e-05 1.3187590986490250e-02 1.8602896481752396e-02 1.4542316086590290e-02 -5.0339382141828537e-03 -1.4588226564228535e-02 -1.1213464662432671e-02 3.8476563058793545e-03 -3.6512531805783510e-03 -2.8503134381026030e-03 -2.4011477362364531e-03 -6.0588042251765728e-03 -8.2769123837351799e-03 1.2612343765795231e-02 1.1403145268559456e-02 2.3234167601913214e-03 